<?xml version="1.0"?>
<opencv_storage>
<cascade>
  <stageType>BOOST</stageType>
  <featureType>LBP</featureType>
  <height>49</height>
  <width>16</width>
  <stageParams>
    <boostType>GAB</boostType>
    <minHitRate>9.9900001287460327e-01</minHitRate>
    <maxFalseAlarm>5.0000000000000000e-01</maxFalseAlarm>
    <weightTrimRate>9.4999999999999996e-01</weightTrimRate>
    <maxDepth>1</maxDepth>
    <maxWeakCount>100</maxWeakCount></stageParams>
  <featureParams>
    <maxCatCount>256</maxCatCount>
    <featSize>1</featSize></featureParams>
  <stageNum>11</stageNum>
  <stages>
    <!-- stage 0 -->
    <_>
      <maxWeakCount>5</maxWeakCount>
      <stageThreshold>-1.3145505189895630e+00</stageThreshold>
      <weakClassifiers>
        <_>
          <internalNodes>
            0 -1 81 -657138480 -11481072 -788401935 -541983279
            -589247236 -393426815 -115812100 -516</internalNodes>
          <leafValues>
            -8.3157896995544434e-01 7.6044160127639771e-01</leafValues></_>
        <_>
          <internalNodes>
            0 -1 53 -69206017 -1074811518 -788268033 -1349529107
            -276211249 -1425018836 -611357441 71792467</internalNodes>
          <leafValues>
            -7.6765066385269165e-01 5.7191693782806396e-01</leafValues></_>
        <_>
          <internalNodes>
            0 -1 9 -14035745 -6879323 -778980903 1595216177 -1198872945
            -1081473009 -1684043013 486738971</internalNodes>
          <leafValues>
            -6.3687551021575928e-01 6.2487673759460449e-01</leafValues></_>
        <_>
          <internalNodes>
            0 -1 62 -61800464 -82650255 -785713703 -797869 -401016648
            -124811118 -117638918 -589829</internalNodes>
          <leafValues>
            -6.9302105903625488e-01 4.7140392661094666e-01</leafValues></_>
        <_>
          <internalNodes>
            0 -1 4 -45359489 -16531312 -1005916074 -844984256 -829699190
            -389496800 -863970985 1073823824</internalNodes>
          <leafValues>
            -7.0100295543670654e-01 4.5015072822570801e-01</leafValues></_></weakClassifiers></_>
    <!-- stage 1 -->
    <_>
      <maxWeakCount>5</maxWeakCount>
      <stageThreshold>-1.2011681795120239e+00</stageThreshold>
      <weakClassifiers>
        <_>
          <internalNodes>
            0 -1 70 -128910224 -93274377 -744290372 -539626738
            -334171676 -21697579 -658707720 -1</internalNodes>
          <leafValues>
            -7.8322583436965942e-01 6.7330396175384521e-01</leafValues></_>
        <_>
          <internalNodes>
            0 -1 58 -136323073 -1513105937 -141568529 -939658801
            2065919343 119419167 -180684465 1182792535</internalNodes>
          <leafValues>
            -7.5155991315841675e-01 4.7452434897422791e-01</leafValues></_>
        <_>
          <internalNodes>
            0 -1 80 33687040 -831504059 1166399812 -44089001 1108431396
            -21643039 -116398343 -5777157</internalNodes>
          <leafValues>
            -8.1183177232742310e-01 3.6599522829055786e-01</leafValues></_>
        <_>
          <internalNodes>
            0 -1 26 -385 -33 -1048865 -67637297 -33701 -1141915797
            -8918673 -144182457</internalNodes>
          <leafValues>
            -4.5410573482513428e-01 6.1551308631896973e-01</leafValues></_>
        <_>
          <internalNodes>
            0 -1 45 -1427964170 -2143235328 -1675899137 -32417806
            78183423 -1530651995 77392879 -1527514601</internalNodes>
          <leafValues>
            -6.6815412044525146e-01 4.2172807455062866e-01</leafValues></_></weakClassifiers></_>
    <!-- stage 2 -->
    <_>
      <maxWeakCount>9</maxWeakCount>
      <stageThreshold>-1.3454501628875732e+00</stageThreshold>
      <weakClassifiers>
        <_>
          <internalNodes>
            0 -1 33 -17 699137967 -8388613 -637535233 1879013191
            88342327 -8388737 2009071615</internalNodes>
          <leafValues>
            -4.5652174949645996e-01 6.8211120367050171e-01</leafValues></_>
        <_>
          <internalNodes>
            0 -1 37 -1311745 -33559057 -796396545 -42649751 -67390561
            -1632939087 782735023 168240383</internalNodes>
          <leafValues>
            -5.1817792654037476e-01 5.4221451282501221e-01</leafValues></_>
        <_>
          <internalNodes>
            0 -1 103 -671352837 -1410374966 1431812027 -439364691
            -69568657 1680767559 -201589149 7339791</internalNodes>
          <leafValues>
            -6.0405826568603516e-01 4.1400456428527832e-01</leafValues></_>
        <_>
          <internalNodes>
            0 -1 44 -1054356090 1073797888 -451813426 -2927649
            1076222116 -585053966 -117442050 -542123521</internalNodes>
          <leafValues>
            -6.1946624517440796e-01 3.6695218086242676e-01</leafValues></_>
        <_>
          <internalNodes>
            0 -1 29 -637829633 -303045665 588968863 -3384373 -36285
            -236737241 -71933081 1467413767</internalNodes>
          <leafValues>
            -6.0008668899536133e-01 3.8492578268051147e-01</leafValues></_>
        <_>
          <internalNodes>
            0 -1 85 1569652714 216977902 -171445249 -406354993
            1832339791 55013899 -1760396466 1666185058</internalNodes>
          <leafValues>
            -6.4017987251281738e-01 2.9040953516960144e-01</leafValues></_>
        <_>
          <internalNodes>
            0 -1 62 1548804080 -687831841 1464676978 -581462170
            -703009140 -5055773 -16971608 -87574</internalNodes>
          <leafValues>
            -8.2034873962402344e-01 2.0269377529621124e-01</leafValues></_>
        <_>
          <internalNodes>
            0 -1 34 -114824594 42640043 -1539303407 224336511 1437806080
            17914579 319773687 1073431487</internalNodes>
          <leafValues>
            -5.0197279453277588e-01 3.8419106602668762e-01</leafValues></_>
        <_>
          <internalNodes>
            0 -1 8 -65546 -37368780 -1073428111 -849656383 -1055812552
            -928684856 688237899 -1861512847</internalNodes>
          <leafValues>
            -4.8482608795166016e-01 4.2784604430198669e-01</leafValues></_></weakClassifiers></_>
    <!-- stage 3 -->
    <_>
      <maxWeakCount>9</maxWeakCount>
      <stageThreshold>-1.4736846685409546e+00</stageThreshold>
      <weakClassifiers>
        <_>
          <internalNodes>
            0 -1 64 -538968065 -819507013 -538968097 -285771913
            -1141769285 -17832193 -288358690 4347472</internalNodes>
          <leafValues>
            -7.2673732042312622e-01 5.1317042112350464e-01</leafValues></_>
        <_>
          <internalNodes>
            0 -1 77 -1048577 -82314787 -326637091 -278274871 -13567055
            -5505841 -165610625 1100991</internalNodes>
          <leafValues>
            -5.6571990251541138e-01 4.4854280352592468e-01</leafValues></_>
        <_>
          <internalNodes>
            0 -1 98 -334180108 -9123403 -1155287095 -15680635
            -1323435847 -73012307 -1182139736 -4211719</internalNodes>
          <leafValues>
            -6.7008107900619507e-01 3.6543518304824829e-01</leafValues></_>
        <_>
          <internalNodes>
            0 -1 74 2145320943 -1412442706 -287579649 -279970355
            -346074274 -11540393 -12102833 1114109767</internalNodes>
          <leafValues>
            -5.6317746639251709e-01 3.0904862284660339e-01</leafValues></_>
        <_>
          <internalNodes>
            0 -1 43 7384576 -1838034693 -1621688833 -8303 4111496
            -1074770853 -1097876069 -1074725155</internalNodes>
          <leafValues>
            -6.5445786714553833e-01 2.7709701657295227e-01</leafValues></_>
        <_>
          <internalNodes>
            0 -1 30 -288358705 -1946686225 -123943729 -108171537
            1441148931 1170203763 -173017225 2013259607</internalNodes>
          <leafValues>
            -5.4605072736740112e-01 3.4771609306335449e-01</leafValues></_>
        <_>
          <internalNodes>
            0 -1 111 -1814218757 -1518106742 894947697 -6311535 -2132101
            -514639270 -414224923 15725905</internalNodes>
          <leafValues>
            -5.5184024572372437e-01 3.1726679205894470e-01</leafValues></_>
        <_>
          <internalNodes>
            0 -1 89 -69941204 -548240326 -1201672723 1998199147 -2456436
            -278190562 -1903645955 681184392</internalNodes>
          <leafValues>
            -6.8405151367187500e-01 2.2517773509025574e-01</leafValues></_>
        <_>
          <internalNodes>
            0 -1 50 1599233620 -9243745 1398198762 2136111615
            -1306082916 -78369271 -288716330 -296458410</internalNodes>
          <leafValues>
            -6.0740560293197632e-01 2.8145253658294678e-01</leafValues></_></weakClassifiers></_>
    <!-- stage 4 -->
    <_>
      <maxWeakCount>13</maxWeakCount>
      <stageThreshold>-1.2856916189193726e+00</stageThreshold>
      <weakClassifiers>
        <_>
          <internalNodes>
            0 -1 27 -8225 2079326207 -1 -2099457 -33522 -1073807505 -433
            1147627079</internalNodes>
          <leafValues>
            -4.5730027556419373e-01 5.1459980010986328e-01</leafValues></_>
        <_>
          <internalNodes>
            0 -1 10 -3682305 -141849957 -179192833 -585153271 -351283736
            -1626127928 707259355 420414747</internalNodes>
          <leafValues>
            -4.8632198572158813e-01 3.9277100563049316e-01</leafValues></_>
        <_>
          <internalNodes>
            0 -1 63 -95420458 -153452971 -1220602817 -28162238
            -1460749633 -1164975275 -1932920593 -1594917822</internalNodes>
          <leafValues>
            -4.3903410434722900e-01 3.8518813252449036e-01</leafValues></_>
        <_>
          <internalNodes>
            0 -1 46 673400320 3366951 41961766 -45678265 204623104
            -1120319463 -1550206193 -1074008193</internalNodes>
          <leafValues>
            -7.2366225719451904e-01 2.4618403613567352e-01</leafValues></_>
        <_>
          <internalNodes>
            0 -1 84 1469798379 261065664 -180236017 -1343241237 -3443329
            1599806491 -753762705 1114636107</internalNodes>
          <leafValues>
            -6.1248284578323364e-01 2.4742652475833893e-01</leafValues></_>
        <_>
          <internalNodes>
            0 -1 23 -795129345 -11019041 1078465023 -3671825 -1467086194
            -1200146141 -368336166 1850098246</internalNodes>
          <leafValues>
            -5.1274472475051880e-01 3.1189283728599548e-01</leafValues></_>
        <_>
          <internalNodes>
            0 -1 100 -541343550 -649478144 230017 -788069335 -1996259254
            67174724 475899 -888441137</internalNodes>
          <leafValues>
            -3.7167167663574219e-01 4.0898665785789490e-01</leafValues></_>
        <_>
          <internalNodes>
            0 -1 75 -174194738 572692140 -862888734 -216538416
            1368125702 1111082179 -1289947022 2012986365</internalNodes>
          <leafValues>
            -5.1400798559188843e-01 3.0098527669906616e-01</leafValues></_>
        <_>
          <internalNodes>
            0 -1 122 -603195253 1087337481 -1805626776 -799704839
            -640431974 -993986565 -992870917 -722470241</internalNodes>
          <leafValues>
            -3.0855861306190491e-01 5.3711247444152832e-01</leafValues></_>
        <_>
          <internalNodes>
            0 -1 99 -928123724 -576652924 -1325233296 -717282927
            -930372673 -912683645 -1070946133 -838997313</internalNodes>
          <leafValues>
            -5.0147110223770142e-01 3.0535230040550232e-01</leafValues></_>
        <_>
          <internalNodes>
            0 -1 7 -2 -842807062 -117407360 -1782066984 -899113750
            -720254832 -452857909 -788426503</internalNodes>
          <leafValues>
            -4.5777320861816406e-01 3.3652561902999878e-01</leafValues></_>
        <_>
          <internalNodes>
            0 -1 96 -1027480960 -648869888 1881151488 1426554947
            -1191083390 -1770862479 -1438476150 -807512258</internalNodes>
          <leafValues>
            -4.1367259621620178e-01 3.6570617556571960e-01</leafValues></_>
        <_>
          <internalNodes>
            0 -1 117 -1109393685 -1916031352 -1342178071 -574624415
            -1099956821 -974913941 -1203768861 143654851</internalNodes>
          <leafValues>
            -3.8715198636054993e-01 4.0447863936424255e-01</leafValues></_></weakClassifiers></_>
    <!-- stage 5 -->
    <_>
      <maxWeakCount>12</maxWeakCount>
      <stageThreshold>-1.4396741390228271e+00</stageThreshold>
      <weakClassifiers>
        <_>
          <internalNodes>
            0 -1 3 -34078721 -538978052 -787208 -570568496 -33882694
            -1073816336 -16712358 -788410128</internalNodes>
          <leafValues>
            -3.3090910315513611e-01 5.5428570508956909e-01</leafValues></_>
        <_>
          <internalNodes>
            0 -1 60 -871314428 -29325264 -1777859908 -812408515
            -859186808 -84276224 -1652307730 -3438081</internalNodes>
          <leafValues>
            -6.8889778852462769e-01 2.9605582356452942e-01</leafValues></_>
        <_>
          <internalNodes>
            0 -1 76 -34083090 -2077497394 -216940544 -537439590
            -461432316 1145176182 -452204065 2009069391</internalNodes>
          <leafValues>
            -4.5520603656768799e-01 3.8085794448852539e-01</leafValues></_>
        <_>
          <internalNodes>
            0 -1 73 -49305470 1380753552 8257 -784077278 -201146216
            -1069149008 -217806390 -819993889</internalNodes>
          <leafValues>
            -3.4155341982841492e-01 4.6084678173065186e-01</leafValues></_>
        <_>
          <internalNodes>
            0 -1 24 -540030902 -112524798 439503360 -212355480
            -1823014656 -1035581948 -2127802445 -146278569</internalNodes>
          <leafValues>
            -3.7468805909156799e-01 4.0649521350860596e-01</leafValues></_>
        <_>
          <internalNodes>
            0 -1 48 -422662470 -233829616 197335818 520269091 541886639
            -1399058459 -1408463921 -1464385849</internalNodes>
          <leafValues>
            -5.1727670431137085e-01 2.8390914201736450e-01</leafValues></_>
        <_>
          <internalNodes>
            0 -1 104 1062202288 671318926 -1795046175 -1946562176
            -356566720 1615611425 -476476598 1112537679</internalNodes>
          <leafValues>
            -6.1787408590316772e-01 2.5119775533676147e-01</leafValues></_>
        <_>
          <internalNodes>
            0 -1 119 -1744590206 1564483728 1073742000 1459888512
            1125429992 -1741094880 -993861240 -13124611</internalNodes>
          <leafValues>
            -4.3479239940643311e-01 3.4246230125427246e-01</leafValues></_>
        <_>
          <internalNodes>
            0 -1 38 -4393740 2144956752 -2130700071 -1110361320
            1814563803 772540514 25301178 142273627</internalNodes>
          <leafValues>
            -5.0972253084182739e-01 2.9295334219932556e-01</leafValues></_>
        <_>
          <internalNodes>
            0 -1 55 -2134506529 -639367025 403803 -2452783 -2146727688
            -1426087473 -1542288966 1860364114</internalNodes>
          <leafValues>
            -4.3676507472991943e-01 3.5179480910301208e-01</leafValues></_>
        <_>
          <internalNodes>
            0 -1 96 -607392830 -768799104 -803125240 -250968887 5346568
            33755184 1665369553 -1284815201</internalNodes>
          <leafValues>
            -3.4986877441406250e-01 4.0699782967567444e-01</leafValues></_>
        <_>
          <internalNodes>
            0 -1 102 -1824001633 -2130116224 -2080041942 -1082928512
            -619316545 -347910134 -340811094 1078984256</internalNodes>
          <leafValues>
            -5.6368643045425415e-01 2.4990959465503693e-01</leafValues></_></weakClassifiers></_>
    <!-- stage 6 -->
    <_>
      <maxWeakCount>14</maxWeakCount>
      <stageThreshold>-1.3013863563537598e+00</stageThreshold>
      <weakClassifiers>
        <_>
          <internalNodes>
            0 -1 5 -106627086 -12605382 -721895 2003837440 -135856197
            -304187585 -168841477 343736337</internalNodes>
          <leafValues>
            -4.2973938584327698e-01 4.7013074159622192e-01</leafValues></_>
        <_>
          <internalNodes>
            0 -1 83 -34637089 -1085801634 -1284418305 -1344283153
            -589472897 -1205873 -201687178 7074384</internalNodes>
          <leafValues>
            -6.4394140243530273e-01 2.6088058948516846e-01</leafValues></_>
        <_>
          <internalNodes>
            0 -1 26 -1852083489 -606080929 -2147433985 -1074803729
            -2146958770 -1180984197 -1046396357 2003105607</internalNodes>
          <leafValues>
            -5.0627869367599487e-01 2.8463441133499146e-01</leafValues></_>
        <_>
          <internalNodes>
            0 -1 69 1712801028 101730689 1917999582 -10530473 923734460
            -1078779719 -1450182149 -1079022081</internalNodes>
          <leafValues>
            -5.2528667449951172e-01 2.4412520229816437e-01</leafValues></_>
        <_>
          <internalNodes>
            0 -1 35 -12582950 -2171520 -49222005 -582427508 -573666136
            -1902112625 1529924571 -1072639778</internalNodes>
          <leafValues>
            -5.0709474086761475e-01 2.5858306884765625e-01</leafValues></_>
        <_>
          <internalNodes>
            0 -1 21 5237248 550762111 254115404 -203439329 1075554820
            -1029819862 -1935085476 -4878801</internalNodes>
          <leafValues>
            -5.9097266197204590e-01 2.1299184858798981e-01</leafValues></_>
        <_>
          <internalNodes>
            0 -1 56 2077851615 -1347639826 -217590785 -1433410677
            1674275334 -338954133 -74725042 1190650694</internalNodes>
          <leafValues>
            -5.0197857618331909e-01 2.3361419141292572e-01</leafValues></_>
        <_>
          <internalNodes>
            0 -1 123 100894946 -2080259896 1075923296 -994717014
            -1991277424 -2146549631 -926857985 -990052451</internalNodes>
          <leafValues>
            -4.6418961882591248e-01 2.6471588015556335e-01</leafValues></_>
        <_>
          <internalNodes>
            0 -1 109 -217324854 -1857387440 939787461 -608200680
            -1811250488 -1741437504 -1709502229 -610315957</internalNodes>
          <leafValues>
            -3.0572828650474548e-01 4.1458684206008911e-01</leafValues></_>
        <_>
          <internalNodes>
            0 -1 78 -40313616 1603506568 829332317 -1693416550
            -443693944 1876566455 697862312 146287290</internalNodes>
          <leafValues>
            -5.6190192699432373e-01 2.3375764489173889e-01</leafValues></_>
        <_>
          <internalNodes>
            0 -1 54 -229709672 -658447142 2114324582 1447957051
            -1337447784 -1981677167 -11620870 -13173838</internalNodes>
          <leafValues>
            -4.2030707001686096e-01 2.8616255521774292e-01</leafValues></_>
        <_>
          <internalNodes>
            0 -1 40 -693778460 580927548 865089017 1700626717 329995576
            497680601 153254891 230511071</internalNodes>
          <leafValues>
            -5.5006170272827148e-01 2.3052947223186493e-01</leafValues></_>
        <_>
          <internalNodes>
            0 -1 87 -335808657 -2025599036 71459312 -187331339
            -175611642 -967665567 -476615689 1392502995</internalNodes>
          <leafValues>
            -3.9559245109558105e-01 3.3844906091690063e-01</leafValues></_>
        <_>
          <internalNodes>
            0 -1 96 -29166976 -232980344 553653577 268864040 -1334726016
            5243393 135182017 -1821489362</internalNodes>
          <leafValues>
            -4.5852881669998169e-01 2.6431748270988464e-01</leafValues></_></weakClassifiers></_>
    <!-- stage 7 -->
    <_>
      <maxWeakCount>16</maxWeakCount>
      <stageThreshold>-1.0673023462295532e+00</stageThreshold>
      <weakClassifiers>
        <_>
          <internalNodes>
            0 -1 19 1342373890 1480597312 1490139152 2067136288
            1912620608 -1287586476 -532612251 -145360048</internalNodes>
          <leafValues>
            -3.1250000000000000e-01 4.7311452031135559e-01</leafValues></_>
        <_>
          <internalNodes>
            0 -1 112 -44306288 -246156763 -602517222 -175087377
            -1029645714 -125639934 -266148662 2756239</internalNodes>
          <leafValues>
            -5.4085457324981689e-01 2.5729835033416748e-01</leafValues></_>
        <_>
          <internalNodes>
            0 -1 16 -1048577 -7372986 -16779529 -11046313 -1394149667
            -830481033 -1466984194 -1001914553</internalNodes>
          <leafValues>
            -3.2242241501808167e-01 4.0726616978645325e-01</leafValues></_>
        <_>
          <internalNodes>
            0 -1 94 101057024 -297531087 -1088343724 -581735701
            2035334052 -71311215 -2013136231 -4478297</internalNodes>
          <leafValues>
            -6.4553892612457275e-01 1.8726593255996704e-01</leafValues></_>
        <_>
          <internalNodes>
            0 -1 101 -121462240 -655674880 329873 319358651 -167101600
            975968388 1935784442 -1690629766</internalNodes>
          <leafValues>
            -3.7965983152389526e-01 3.2369157671928406e-01</leafValues></_>
        <_>
          <internalNodes>
            0 -1 32 -2118674 797550774 -1987946089 -405960313 1092223560
            52261563 -351487153 2001600475</internalNodes>
          <leafValues>
            -5.7189583778381348e-01 1.7954289913177490e-01</leafValues></_>
        <_>
          <internalNodes>
            0 -1 100 -615255856 -182738816 -2004842319 -720173377
            -2147442530 74221064 455675 -492154165</internalNodes>
          <leafValues>
            -3.2143852114677429e-01 3.9935332536697388e-01</leafValues></_>
        <_>
          <internalNodes>
            0 -1 59 3345920 -1827775651 335613813 -774696873 -1341514235
            -1078441527 -1148207169 -1347478517</internalNodes>
          <leafValues>
            -5.3563928604125977e-01 2.4242874979972839e-01</leafValues></_>
        <_>
          <internalNodes>
            0 -1 2 -83895073 -746536232 -1711193469 -618351995
            -1131425650 -645283671 -591121734 1566661647</internalNodes>
          <leafValues>
            -3.7514445185661316e-01 3.2906806468963623e-01</leafValues></_>
        <_>
          <internalNodes>
            0 -1 65 -607397182 -27651424 1344539275 -788045520
            -1275017046 -367246333 -2017324337 -538243697</internalNodes>
          <leafValues>
            -2.7592733502388000e-01 4.9519917368888855e-01</leafValues></_>
        <_>
          <internalNodes>
            0 -1 116 -577504577 -279981518 1409548288 -811134953
            -2121805682 -2002026295 -911356432 1212677789</internalNodes>
          <leafValues>
            -3.6185950040817261e-01 3.6215060949325562e-01</leafValues></_>
        <_>
          <internalNodes>
            0 -1 25 -1638410 -271384593 -1900549 -245777 -131090
            -2626129 -98305 -269027513</internalNodes>
          <leafValues>
            -3.3746331930160522e-01 3.6071994900703430e-01</leafValues></_>
        <_>
          <internalNodes>
            0 -1 73 -738541502 -674021152 1098924169 354503841
            -925830949 -1015999404 1396525966 -613688869</internalNodes>
          <leafValues>
            -2.7071928977966309e-01 4.4089725613594055e-01</leafValues></_>
        <_>
          <internalNodes>
            0 -1 106 -603983573 -405821491 687289201 -143393921
            -25335266 -512378889 -1224822806 1936195579</internalNodes>
          <leafValues>
            -2.9993429780006409e-01 4.1743159294128418e-01</leafValues></_>
        <_>
          <internalNodes>
            0 -1 107 -444624373 698867822 483289657 -742363200
            1190116884 -1960379504 1581317768 -326045520</internalNodes>
          <leafValues>
            -3.3451563119888306e-01 3.6313822865486145e-01</leafValues></_>
        <_>
          <internalNodes>
            0 -1 124 -751588736 1477046400 872500560 1373631443
            -1970877568 -1732066687 -1865271165 -1064308077</internalNodes>
          <leafValues>
            -3.2687535881996155e-01 3.7100514769554138e-01</leafValues></_></weakClassifiers></_>
    <!-- stage 8 -->
    <_>
      <maxWeakCount>15</maxWeakCount>
      <stageThreshold>-1.4817602634429932e+00</stageThreshold>
      <weakClassifiers>
        <_>
          <internalNodes>
            0 -1 97 -4720661 669772783 2080242601 -268568593 -34638041
            662699887 -1149289717 1124073359</internalNodes>
          <leafValues>
            -2.7155172824859619e-01 5.2837425470352173e-01</leafValues></_>
        <_>
          <internalNodes>
            0 -1 66 820510687 636666879 -786966049 -1479028530 969630534
            -1482494081 -743939217 1128789830</internalNodes>
          <leafValues>
            -5.2937740087509155e-01 2.9033505916595459e-01</leafValues></_>
        <_>
          <internalNodes>
            0 -1 22 -142879541 -106955837 245865600 1933809523
            -217860090 -754837692 -11018441 -79168717</internalNodes>
          <leafValues>
            -2.6462003588676453e-01 4.6628713607788086e-01</leafValues></_>
        <_>
          <internalNodes>
            0 -1 0 -475920 -461322828 -2069828516 -179271283 -856631911
            -982212391 -609906227 -44700713</internalNodes>
          <leafValues>
            -4.1526758670806885e-01 3.0171960592269897e-01</leafValues></_>
        <_>
          <internalNodes>
            0 -1 82 -745573377 -58557451 822595276 -96319664 -2132878116
            -393380368 -1932592914 -2067105712</internalNodes>
          <leafValues>
            -5.7292991876602173e-01 1.8450930714607239e-01</leafValues></_>
        <_>
          <internalNodes>
            0 -1 20 -1374726540 579298165 504291231 2136361778
            -1542530156 -1340765307 -1397777730 340221522</internalNodes>
          <leafValues>
            -5.2089238166809082e-01 2.2176982462406158e-01</leafValues></_>
        <_>
          <internalNodes>
            0 -1 47 -967162368 1658855215 -299157008 -107904465
            1217371612 -862024553 -810009828 -268782705</internalNodes>
          <leafValues>
            -5.8818644285202026e-01 1.9275647401809692e-01</leafValues></_>
        <_>
          <internalNodes>
            0 -1 118 -35834893 723608032 1493537777 -638092299
            -720383925 -1609731771 -11936478 1078460367</internalNodes>
          <leafValues>
            -3.5545453429222107e-01 3.4089764952659607e-01</leafValues></_>
        <_>
          <internalNodes>
            0 -1 57 -1573130610 -1578124546 155900159 1877885130
            357914439 1106740589 663713654 1405511174</internalNodes>
          <leafValues>
            -6.5359884500503540e-01 1.6769966483116150e-01</leafValues></_>
        <_>
          <internalNodes>
            0 -1 113 2120460039 -1207962853 1076340366 -487136893
            -770875634 -786639951 -182781014 -454887641</internalNodes>
          <leafValues>
            -3.5948064923286438e-01 3.2254680991172791e-01</leafValues></_>
        <_>
          <internalNodes>
            0 -1 14 -45292256 -1657150153 286601727 2098229273 825382711
            849633279 613445375 1065228443</internalNodes>
          <leafValues>
            -4.9229949712753296e-01 2.4388614296913147e-01</leafValues></_>
        <_>
          <internalNodes>
            0 -1 67 1852767434 1617609419 -848041986 1825511003
            2009016398 1195640956 -1344038569 1978002022</internalNodes>
          <leafValues>
            -6.0796135663986206e-01 1.9308081269264221e-01</leafValues></_>
        <_>
          <internalNodes>
            0 -1 52 -615054340 -1663565698 27674045 -101579873
            -1550089572 -1769176906 -1165041928 -20512938</internalNodes>
          <leafValues>
            -4.2984825372695923e-01 2.4493408203125000e-01</leafValues></_>
        <_>
          <internalNodes>
            0 -1 11 -101122052 -109868915 -781940408 -915517972
            -13179464 -1072554878 -1889360618 405951989</internalNodes>
          <leafValues>
            -5.3530448675155640e-01 2.3200543224811554e-01</leafValues></_>
        <_>
          <internalNodes>
            0 -1 110 -248513902 -786787678 677906056 323984516
            -425753984 -1490894672 372355531 -10495281</internalNodes>
          <leafValues>
            -2.9011207818984985e-01 4.1386574506759644e-01</leafValues></_></weakClassifiers></_>
    <!-- stage 9 -->
    <_>
      <maxWeakCount>19</maxWeakCount>
      <stageThreshold>-1.2657294273376465e+00</stageThreshold>
      <weakClassifiers>
        <_>
          <internalNodes>
            0 -1 86 2145384431 48492526 -8390665 -405282817 2071953227
            1985314679 -134 1736178555</internalNodes>
          <leafValues>
            -2.6726725697517395e-01 4.6269184350967407e-01</leafValues></_>
        <_>
          <internalNodes>
            0 -1 79 1165562396 556890817 -2134876937 2111126555
            365928831 969490874 736555007 802895343</internalNodes>
          <leafValues>
            -5.2155935764312744e-01 2.3928070068359375e-01</leafValues></_>
        <_>
          <internalNodes>
            0 -1 28 -267521 -1048897 788463327 -571475290 -1083233723
            -1092757503 811004631 -144182441</internalNodes>
          <leafValues>
            -2.5741705298423767e-01 4.4878032803535461e-01</leafValues></_>
        <_>
          <internalNodes>
            0 -1 42 -1930494726 849505552 512117694 1930631072
            -2077365267 1826950932 -2001949026 -2072809709</internalNodes>
          <leafValues>
            -5.4351538419723511e-01 1.6894192993640900e-01</leafValues></_>
        <_>
          <internalNodes>
            0 -1 12 -248449028 -1693254739 -621764487 -13326808 14040831
            2144419786 985399481 1030815856</internalNodes>
          <leafValues>
            -5.7830518484115601e-01 1.7309960722923279e-01</leafValues></_>
        <_>
          <internalNodes>
            0 -1 61 -720319488 1462928143 -387710640 -77438817
            -1192227908 -1699446268 -593452100 -3104305</internalNodes>
          <leafValues>
            -7.4768716096878052e-01 1.1309832334518433e-01</leafValues></_>
        <_>
          <internalNodes>
            0 -1 6 -44105990 -337188838 1543651697 -577147656 -330388772
            -1434549956 -334336000 1296258065</internalNodes>
          <leafValues>
            -4.6552601456642151e-01 2.0501931011676788e-01</leafValues></_>
        <_>
          <internalNodes>
            0 -1 95 -762840886 1425375296 -930578144 1100988638
            -1073436790 -1849553798 50408283 -343975313</internalNodes>
          <leafValues>
            -3.2781502604484558e-01 3.1654873490333557e-01</leafValues></_>
        <_>
          <internalNodes>
            0 -1 111 -1823002309 -1077989104 827716035 -1249013592
            -345288101 1800360203 -1827207135 6814721</internalNodes>
          <leafValues>
            -4.6335071325302124e-01 2.4733915925025940e-01</leafValues></_>
        <_>
          <internalNodes>
            0 -1 88 -272108577 -2052260634 687750132 -323083473
            -708052474 -2094662313 -189285439 1475345917</internalNodes>
          <leafValues>
            -3.1624984741210938e-01 3.4239909052848816e-01</leafValues></_>
        <_>
          <internalNodes>
            0 -1 51 -212599058 -159870973 1376258125 2012668631 27697402
            -94475040 -1598158626 -1905806</internalNodes>
          <leafValues>
            -3.3498781919479370e-01 3.1995928287506104e-01</leafValues></_>
        <_>
          <internalNodes>
            0 -1 13 -219160590 -746333740 -1541045931 -825459372
            -1039821424 1195101523 889660731 275717398</internalNodes>
          <leafValues>
            -4.4842052459716797e-01 2.5096431374549866e-01</leafValues></_>
        <_>
          <internalNodes>
            0 -1 123 -1157367821 -1928354816 -860629919 -1246367025
            1871372171 -1393754630 -1669540617 -658637893</internalNodes>
          <leafValues>
            -2.5997596979141235e-01 4.4251152873039246e-01</leafValues></_>
        <_>
          <internalNodes>
            0 -1 68 -574097538 -274594942 -1945774862 1523352626
            -1820219434 -1430877499 293464773 -1603210812</internalNodes>
          <leafValues>
            -3.3667826652526855e-01 3.2491934299468994e-01</leafValues></_>
        <_>
          <internalNodes>
            0 -1 114 326607018 1596953290 1744891904 -703205092
            333299848 -570301984 -650071960 -73796103</internalNodes>
          <leafValues>
            -3.3689931035041809e-01 3.2276892662048340e-01</leafValues></_>
        <_>
          <internalNodes>
            0 -1 108 -145624936 -570466102 -1592162244 -35192624
            -1979652982 134890817 -420412760 -26597</internalNodes>
          <leafValues>
            -2.5989413261413574e-01 4.3479752540588379e-01</leafValues></_>
        <_>
          <internalNodes>
            0 -1 109 -606875446 -803224576 -1559489471 -1855073783
            -556799765 924041536 75272779 -75506773</internalNodes>
          <leafValues>
            -2.3610615730285645e-01 4.5771595835685730e-01</leafValues></_>
        <_>
          <internalNodes>
            0 -1 31 279927470 156043167 54772377 -1270615648 101131780
            1189280493 -1313345945 1459091270</internalNodes>
          <leafValues>
            -5.3584092855453491e-01 2.0853130519390106e-01</leafValues></_>
        <_>
          <internalNodes>
            0 -1 15 -206836818 -642948908 -1983565656 1001395280
            1912931327 -3442113 -376867138 1812487540</internalNodes>
          <leafValues>
            -4.1744345426559448e-01 2.8025025129318237e-01</leafValues></_></weakClassifiers></_>
    <!-- stage 10 -->
    <_>
      <maxWeakCount>17</maxWeakCount>
      <stageThreshold>-6.5477132797241211e-01</stageThreshold>
      <weakClassifiers>
        <_>
          <internalNodes>
            0 -1 41 733954043 799227463 2147483647 789536017 665817036
            220691998 -1493184561 2253378</internalNodes>
          <leafValues>
            -2.5037038326263428e-01 6.5544897317886353e-01</leafValues></_>
        <_>
          <internalNodes>
            0 -1 121 134448018 -993269056 -731593520 -1058951997
            1175446668 -858791958 1691678719 -721616929</internalNodes>
          <leafValues>
            -3.0006748437881470e-01 4.1675725579261780e-01</leafValues></_>
        <_>
          <internalNodes>
            0 -1 17 353327178 -611878774 -1435449616 -78542015
            -2125438720 -133742141 -89079742 -42599584</internalNodes>
          <leafValues>
            -3.8979545235633850e-01 3.0316725373268127e-01</leafValues></_>
        <_>
          <internalNodes>
            0 -1 105 2038378987 -1483977920 -1873591087 -446834480
            -1041688565 -1051694821 -763226528 1112272766</internalNodes>
          <leafValues>
            -4.2950689792633057e-01 2.7633348107337952e-01</leafValues></_>
        <_>
          <internalNodes>
            0 -1 39 -297405486 -1873663675 -637008768 2132938042
            -1599907692 -1603083499 -926135827 -1393067433</internalNodes>
          <leafValues>
            -3.6223161220550537e-01 3.0470466613769531e-01</leafValues></_>
        <_>
          <internalNodes>
            0 -1 115 287793826 -1807448816 -1013053152 -579352266
            -448662065 1610763848 -75306838 -236746081</internalNodes>
          <leafValues>
            -3.4046047925949097e-01 3.4722337126731873e-01</leafValues></_>
        <_>
          <internalNodes>
            0 -1 72 271708368 272924743 -402630568 1231012953 436765864
            -2003261438 177944335 -1077710297</internalNodes>
          <leafValues>
            -3.9745521545410156e-01 2.7632963657379150e-01</leafValues></_>
        <_>
          <internalNodes>
            0 -1 71 -1603306854 -1766708480 16910870 599927688
            -1926460529 -366378199 -1466399845 -1058034041</internalNodes>
          <leafValues>
            -3.9637511968612671e-01 2.9382857680320740e-01</leafValues></_>
        <_>
          <internalNodes>
            0 -1 18 -557379510 -578338622 -2147481549 1363435574
            -669915058 -780443603 -583543102 -396038313</internalNodes>
          <leafValues>
            -3.9235472679138184e-01 3.0149248242378235e-01</leafValues></_>
        <_>
          <internalNodes>
            0 -1 92 1338726255 -1557408306 -1575811883 -225239675
            -1102929386 -1062417791 -259390954 1979356011</internalNodes>
          <leafValues>
            -3.9666962623596191e-01 3.0837634205818176e-01</leafValues></_>
        <_>
          <internalNodes>
            0 -1 120 -1054873470 -1851801196 888729232 1342419415
            -922879414 1421213147 -529213260 -1241604101</internalNodes>
          <leafValues>
            -2.9357150197029114e-01 4.2627125978469849e-01</leafValues></_>
        <_>
          <internalNodes>
            0 -1 93 565652550 -1069121418 -324976620 1491747722
            1083771460 1485111499 -2124739988 -129736737</internalNodes>
          <leafValues>
            -4.5449563860893250e-01 2.8161615133285522e-01</leafValues></_>
        <_>
          <internalNodes>
            0 -1 91 -218897168 -1912372202 -441752743 -1857172194
            -434064869 -143432167 1347102143 -277989537</internalNodes>
          <leafValues>
            -3.2766047120094299e-01 3.7212863564491272e-01</leafValues></_>
        <_>
          <internalNodes>
            0 -1 36 642819291 -1456964408 -16810268 1539440376
            1548864975 -572866575 -101629467 -287183675</internalNodes>
          <leafValues>
            -3.4730067849159241e-01 3.6312505602836609e-01</leafValues></_>
        <_>
          <internalNodes>
            0 -1 90 1889669120 823723024 1363154165 -1111550078
            877685485 961286986 1233396895 145238106</internalNodes>
          <leafValues>
            -6.8939799070358276e-01 1.8931476771831512e-01</leafValues></_>
        <_>
          <internalNodes>
            0 -1 1 1619111459 -1942859059 -1786649078 -191668773
            1436778516 419840168 931291327 -221254674</internalNodes>
          <leafValues>
            -3.4102764725685120e-01 3.6773675680160522e-01</leafValues></_>
        <_>
          <internalNodes>
            0 -1 49 -743777562 -608231400 82465922 -746883990
            -1864187190 -1071538176 1567973595 -147901861</internalNodes>
          <leafValues>
            -2.7567028999328613e-01 4.6538347005844116e-01</leafValues></_></weakClassifiers></_></stages>
  <features>
    <_>
      <rect>
        0 0 5 8</rect></_>
    <_>
      <rect>
        0 1 5 3</rect></_>
    <_>
      <rect>
        0 3 3 15</rect></_>
    <_>
      <rect>
        0 6 5 10</rect></_>
    <_>
      <rect>
        0 6 5 13</rect></_>
    <_>
      <rect>
        0 9 4 6</rect></_>
    <_>
      <rect>
        0 9 4 11</rect></_>
    <_>
      <rect>
        0 10 5 8</rect></_>
    <_>
      <rect>
        0 11 4 7</rect></_>
    <_>
      <rect>
        0 11 5 5</rect></_>
    <_>
      <rect>
        0 11 5 6</rect></_>
    <_>
      <rect>
        0 11 5 7</rect></_>
    <_>
      <rect>
        0 12 4 4</rect></_>
    <_>
      <rect>
        0 12 4 6</rect></_>
    <_>
      <rect>
        0 16 4 3</rect></_>
    <_>
      <rect>
        0 17 3 2</rect></_>
    <_>
      <rect>
        0 18 5 8</rect></_>
    <_>
      <rect>
        0 19 1 4</rect></_>
    <_>
      <rect>
        0 19 2 6</rect></_>
    <_>
      <rect>
        0 20 1 3</rect></_>
    <_>
      <rect>
        0 20 5 5</rect></_>
    <_>
      <rect>
        0 21 4 2</rect></_>
    <_>
      <rect>
        0 23 1 2</rect></_>
    <_>
      <rect>
        0 24 3 3</rect></_>
    <_>
      <rect>
        0 25 1 1</rect></_>
    <_>
      <rect>
        0 25 3 2</rect></_>
    <_>
      <rect>
        0 25 3 3</rect></_>
    <_>
      <rect>
        0 25 4 4</rect></_>
    <_>
      <rect>
        0 26 2 3</rect></_>
    <_>
      <rect>
        0 26 3 2</rect></_>
    <_>
      <rect>
        0 28 3 2</rect></_>
    <_>
      <rect>
        0 28 4 5</rect></_>
    <_>
      <rect>
        0 28 5 3</rect></_>
    <_>
      <rect>
        0 30 5 3</rect></_>
    <_>
      <rect>
        0 34 5 5</rect></_>
    <_>
      <rect>
        1 8 5 9</rect></_>
    <_>
      <rect>
        1 10 2 3</rect></_>
    <_>
      <rect>
        1 10 5 6</rect></_>
    <_>
      <rect>
        1 14 5 3</rect></_>
    <_>
      <rect>
        1 15 4 9</rect></_>
    <_>
      <rect>
        1 15 5 4</rect></_>
    <_>
      <rect>
        1 16 5 11</rect></_>
    <_>
      <rect>
        1 18 5 6</rect></_>
    <_>
      <rect>
        1 19 3 3</rect></_>
    <_>
      <rect>
        1 19 5 3</rect></_>
    <_>
      <rect>
        1 19 5 5</rect></_>
    <_>
      <rect>
        1 20 4 2</rect></_>
    <_>
      <rect>
        1 20 4 3</rect></_>
    <_>
      <rect>
        1 20 5 4</rect></_>
    <_>
      <rect>
        1 22 1 1</rect></_>
    <_>
      <rect>
        1 22 2 3</rect></_>
    <_>
      <rect>
        1 23 2 2</rect></_>
    <_>
      <rect>
        1 24 3 2</rect></_>
    <_>
      <rect>
        1 24 5 5</rect></_>
    <_>
      <rect>
        1 25 3 1</rect></_>
    <_>
      <rect>
        1 25 3 2</rect></_>
    <_>
      <rect>
        1 26 4 5</rect></_>
    <_>
      <rect>
        1 27 3 2</rect></_>
    <_>
      <rect>
        1 27 5 3</rect></_>
    <_>
      <rect>
        2 18 3 3</rect></_>
    <_>
      <rect>
        2 18 4 4</rect></_>
    <_>
      <rect>
        2 19 2 4</rect></_>
    <_>
      <rect>
        2 19 3 4</rect></_>
    <_>
      <rect>
        2 19 4 6</rect></_>
    <_>
      <rect>
        2 21 4 6</rect></_>
    <_>
      <rect>
        2 22 1 1</rect></_>
    <_>
      <rect>
        2 27 3 3</rect></_>
    <_>
      <rect>
        2 30 4 2</rect></_>
    <_>
      <rect>
        3 12 2 1</rect></_>
    <_>
      <rect>
        3 18 4 3</rect></_>
    <_>
      <rect>
        3 19 3 4</rect></_>
    <_>
      <rect>
        3 19 4 5</rect></_>
    <_>
      <rect>
        3 22 2 1</rect></_>
    <_>
      <rect>
        3 23 1 1</rect></_>
    <_>
      <rect>
        3 26 4 5</rect></_>
    <_>
      <rect>
        3 30 3 2</rect></_>
    <_>
      <rect>
        3 30 4 5</rect></_>
    <_>
      <rect>
        4 7 4 9</rect></_>
    <_>
      <rect>
        4 11 4 4</rect></_>
    <_>
      <rect>
        4 14 4 4</rect></_>
    <_>
      <rect>
        4 19 3 3</rect></_>
    <_>
      <rect>
        4 19 3 4</rect></_>
    <_>
      <rect>
        4 20 3 6</rect></_>
    <_>
      <rect>
        4 26 3 3</rect></_>
    <_>
      <rect>
        4 26 4 4</rect></_>
    <_>
      <rect>
        4 27 4 3</rect></_>
    <_>
      <rect>
        4 29 4 3</rect></_>
    <_>
      <rect>
        4 31 3 3</rect></_>
    <_>
      <rect>
        4 32 2 3</rect></_>
    <_>
      <rect>
        5 10 3 5</rect></_>
    <_>
      <rect>
        5 15 3 3</rect></_>
    <_>
      <rect>
        5 23 2 1</rect></_>
    <_>
      <rect>
        5 31 2 2</rect></_>
    <_>
      <rect>
        6 9 3 2</rect></_>
    <_>
      <rect>
        6 19 2 3</rect></_>
    <_>
      <rect>
        6 22 1 1</rect></_>
    <_>
      <rect>
        6 23 1 1</rect></_>
    <_>
      <rect>
        6 28 3 2</rect></_>
    <_>
      <rect>
        7 19 2 4</rect></_>
    <_>
      <rect>
        7 19 3 4</rect></_>
    <_>
      <rect>
        7 23 1 1</rect></_>
    <_>
      <rect>
        7 24 1 1</rect></_>
    <_>
      <rect>
        7 25 3 3</rect></_>
    <_>
      <rect>
        7 26 3 3</rect></_>
    <_>
      <rect>
        7 27 3 3</rect></_>
    <_>
      <rect>
        7 27 3 4</rect></_>
    <_>
      <rect>
        7 32 2 3</rect></_>
    <_>
      <rect>
        8 11 1 1</rect></_>
    <_>
      <rect>
        8 22 1 1</rect></_>
    <_>
      <rect>
        9 23 1 1</rect></_>
    <_>
      <rect>
        9 24 1 1</rect></_>
    <_>
      <rect>
        9 25 2 3</rect></_>
    <_>
      <rect>
        10 8 2 8</rect></_>
    <_>
      <rect>
        10 13 2 2</rect></_>
    <_>
      <rect>
        10 21 1 2</rect></_>
    <_>
      <rect>
        10 21 2 2</rect></_>
    <_>
      <rect>
        10 23 2 3</rect></_>
    <_>
      <rect>
        10 25 2 2</rect></_>
    <_>
      <rect>
        10 26 2 3</rect></_>
    <_>
      <rect>
        11 21 1 2</rect></_>
    <_>
      <rect>
        13 20 1 2</rect></_>
    <_>
      <rect>
        13 20 1 3</rect></_>
    <_>
      <rect>
        13 21 1 2</rect></_>
    <_>
      <rect>
        13 21 1 3</rect></_>
    <_>
      <rect>
        13 25 1 1</rect></_></features></cascade>
</opencv_storage>
