<?xml version="1.0"?>
<opencv_storage>
<cascade>
  <stageType>BOOST</stageType>
  <featureType>LBP</featureType>
  <height>48</height>
  <width>50</width>
  <stageParams>
    <boostType>GAB</boostType>
    <minHitRate>9.9900001287460327e-01</minHitRate>
    <maxFalseAlarm>5.0000000000000000e-01</maxFalseAlarm>
    <weightTrimRate>9.4999999999999996e-01</weightTrimRate>
    <maxDepth>1</maxDepth>
    <maxWeakCount>100</maxWeakCount></stageParams>
  <featureParams>
    <maxCatCount>256</maxCatCount>
    <featSize>1</featSize></featureParams>
  <stageNum>15</stageNum>
  <stages>
    <!-- stage 0 -->
    <_>
      <maxWeakCount>7</maxWeakCount>
      <stageThreshold>-6.4451998472213745e-01</stageThreshold>
      <weakClassifiers>
        <_>
          <internalNodes>
            0 -1 77 -31299344 -185060156 1698200661 -138386064
            -332377920 -106636 -1521463852 -42213889</internalNodes>
          <leafValues>
            -4.4850498437881470e-01 6.3474386930465698e-01</leafValues></_>
        <_>
          <internalNodes>
            0 -1 86 -1157620491 1003683861 252809427 -1755704869
            168304125 -343179105 -1987491107 -1677845511</internalNodes>
          <leafValues>
            -5.9947174787521362e-01 4.9828180670738220e-01</leafValues></_>
        <_>
          <internalNodes>
            0 -1 79 -1121955727 -78106399 -2142644521 -251653842
            -1417118755 -5518776 816398845 -1691855864</internalNodes>
          <leafValues>
            -5.3864097595214844e-01 4.7341063618659973e-01</leafValues></_>
        <_>
          <internalNodes>
            0 -1 32 -528649 255298048 805219874 -1590097363 -59748792
            -1951693566 637471976 -805306701</internalNodes>
          <leafValues>
            -4.7946712374687195e-01 5.5333358049392700e-01</leafValues></_>
        <_>
          <internalNodes>
            0 -1 117 -1557976709 -1912421101 570546591 -2111008064
            680603931 -633796440 1380074613 -1063987200</internalNodes>
          <leafValues>
            -7.3455387353897095e-01 3.2404708862304688e-01</leafValues></_>
        <_>
          <internalNodes>
            0 -1 104 -108856363 -1143274864 268570771 -1627189111
            -1584901935 -617741171 849215930 -1631630747</internalNodes>
          <leafValues>
            -4.9745452404022217e-01 5.6278085708618164e-01</leafValues></_>
        <_>
          <internalNodes>
            0 -1 90 -551305445 -43499862 -1505873407 891465346 204212262
            -1741310601 628426747 -1354774741</internalNodes>
          <leafValues>
            -4.5151445269584656e-01 6.1172592639923096e-01</leafValues></_></weakClassifiers></_>
    <!-- stage 1 -->
    <_>
      <maxWeakCount>8</maxWeakCount>
      <stageThreshold>-1.0329909324645996e+00</stageThreshold>
      <weakClassifiers>
        <_>
          <internalNodes>
            0 -1 60 -1319429 18562865 -1359082414 209391185 236412276
            -1363723171 704580870 1879023487</internalNodes>
          <leafValues>
            -4.2584562301635742e-01 5.9068757295608521e-01</leafValues></_>
        <_>
          <internalNodes>
            0 -1 36 -1025317112 -528071706 1275084801 -989380478
            271769888 -532627440 -245767144 -168570325</internalNodes>
          <leafValues>
            -5.3961080312728882e-01 4.5350757241249084e-01</leafValues></_>
        <_>
          <internalNodes>
            0 -1 98 -1545134241 174820637 436311031 1677877808
            -127195789 -7626071 579270452 -17644588</internalNodes>
          <leafValues>
            -5.3345096111297607e-01 4.5806068181991577e-01</leafValues></_>
        <_>
          <internalNodes>
            0 -1 46 -318787681 -487629105 -160437337 -889817233
            -142784681 -546357547 -554008719 -30212619</internalNodes>
          <leafValues>
            -4.6203857660293579e-01 5.0947976112365723e-01</leafValues></_>
        <_>
          <internalNodes>
            0 -1 108 538841599 254941279 -131475683 -275623585 600914805
            -314392565 -1344533679 -1091016587</internalNodes>
          <leafValues>
            -6.1680257320404053e-01 3.8112518191337585e-01</leafValues></_>
        <_>
          <internalNodes>
            0 -1 2 -657986040 -888542057 -160842110 -182327653 216821111
            -844287041 -1062143269 -216275957</internalNodes>
          <leafValues>
            -4.6256679296493530e-01 5.4021733999252319e-01</leafValues></_>
        <_>
          <internalNodes>
            0 -1 135 727392255 -1903246332 -711945892 -155051498
            -1558638743 -1425440582 -2080302991 -295738040</internalNodes>
          <leafValues>
            -5.0581640005111694e-01 5.1020061969757080e-01</leafValues></_>
        <_>
          <internalNodes>
            0 -1 113 -318963729 -805392402 -402884315 -1879310362
            1281107927 -1611145867 1722437634 -676609621</internalNodes>
          <leafValues>
            -4.4781699776649475e-01 5.6920272111892700e-01</leafValues></_></weakClassifiers></_>
    <!-- stage 2 -->
    <_>
      <maxWeakCount>7</maxWeakCount>
      <stageThreshold>-8.2009512186050415e-01</stageThreshold>
      <weakClassifiers>
        <_>
          <internalNodes>
            0 -1 115 226441085 -1932552324 -449872425 -1383059072
            805784669 -40134161 469961073 -1363653600</internalNodes>
          <leafValues>
            -5.6167399883270264e-01 5.3059273958206177e-01</leafValues></_>
        <_>
          <internalNodes>
            0 -1 91 -293601409 247894200 -1520968235 -1998390380
            2074762517 -290616645 1233825332 -931858704</internalNodes>
          <leafValues>
            -5.3999882936477661e-01 4.7744083404541016e-01</leafValues></_>
        <_>
          <internalNodes>
            0 -1 101 603920759 184295762 958125557 -25536108 151526257
            -340799346 1615754740 -868985692</internalNodes>
          <leafValues>
            -6.0789334774017334e-01 3.9883080124855042e-01</leafValues></_>
        <_>
          <internalNodes>
            0 -1 56 -902037665 142760475 -1604972526 21004850 403379573
            -903673589 1611354864 -655099105</internalNodes>
          <leafValues>
            -5.8494555950164795e-01 4.4044044613838196e-01</leafValues></_>
        <_>
          <internalNodes>
            0 -1 80 -1198760513 -73434891 -1045182569 -664897333
            -1241064611 -578095917 -1154862124 -1080013804</internalNodes>
          <leafValues>
            -5.2961200475692749e-01 4.7195556759834290e-01</leafValues></_>
        <_>
          <internalNodes>
            0 -1 71 -1963466113 -1978390436 -1794025389 -1639180930
            -693163961 -392072936 1268842359 -296183536</internalNodes>
          <leafValues>
            -5.7032018899917603e-01 4.3777313828468323e-01</leafValues></_>
        <_>
          <internalNodes>
            0 -1 38 1314770303 1147309456 787394321 24583937 -815951920
            1680553335 -1377415342 -357568525</internalNodes>
          <leafValues>
            -4.5138257741928101e-01 5.8580118417739868e-01</leafValues></_></weakClassifiers></_>
    <!-- stage 3 -->
    <_>
      <maxWeakCount>7</maxWeakCount>
      <stageThreshold>-6.4465862512588501e-01</stageThreshold>
      <weakClassifiers>
        <_>
          <internalNodes>
            0 -1 119 -1269530763 -134811649 2147483647 -114692
            -1073890319 -65537 -1075069955 716705008</internalNodes>
          <leafValues>
            -4.7058823704719543e-01 5.2830189466476440e-01</leafValues></_>
        <_>
          <internalNodes>
            0 -1 49 1931042527 118560081 -2095970041 114830054
            1107430357 -98037462 -900978152 -1900605441</internalNodes>
          <leafValues>
            -4.9880227446556091e-01 4.1554570198059082e-01</leafValues></_>
        <_>
          <internalNodes>
            0 -1 70 -462103052 -9404406 7157 -1621552759 -345864108
            -1156571117 -1429709999 -387629581</internalNodes>
          <leafValues>
            -5.2037227153778076e-01 3.9348861575126648e-01</leafValues></_>
        <_>
          <internalNodes>
            0 -1 124 -1565477665 -1363914478 -620656257 -2138119778
            1883649179 -115121954 25252272 -1651898304</internalNodes>
          <leafValues>
            -5.3813213109970093e-01 3.8555541634559631e-01</leafValues></_>
        <_>
          <internalNodes>
            0 -1 102 127402041 -35729007 -1056841957 -644759457
            1208908729 -1165426546 -882574901 -1631041480</internalNodes>
          <leafValues>
            -4.5558753609657288e-01 4.2977884411811829e-01</leafValues></_>
        <_>
          <internalNodes>
            0 -1 84 2076375031 -674233057 -782622852 763921018
            1289827085 -611788408 -1392112556 -629423898</internalNodes>
          <leafValues>
            -4.6686163544654846e-01 4.2542123794555664e-01</leafValues></_>
        <_>
          <internalNodes>
            0 -1 20 -40137597 -543687389 1872905037 1896163134
            -381139457 -556876120 -504236821 1396236316</internalNodes>
          <leafValues>
            -3.8582468032836914e-01 5.4969286918640137e-01</leafValues></_></weakClassifiers></_>
    <!-- stage 4 -->
    <_>
      <maxWeakCount>10</maxWeakCount>
      <stageThreshold>-1.1473387479782104e+00</stageThreshold>
      <weakClassifiers>
        <_>
          <internalNodes>
            0 -1 69 2080407031 487610163 -2094890918 71893004 2452660
            576589824 165489790 260508223</internalNodes>
          <leafValues>
            -4.9346017837524414e-01 4.7012504935264587e-01</leafValues></_>
        <_>
          <internalNodes>
            0 -1 16 -69009460 -35258763 -1086016000 -78286271 -482476113
            -532400399 -43010049 -177134929</internalNodes>
          <leafValues>
            -3.9394310116767883e-01 5.0031131505966187e-01</leafValues></_>
        <_>
          <internalNodes>
            0 -1 143 429061043 117631120 698565336 -342765567 705933499
            -359743262 159875568 1208965332</internalNodes>
          <leafValues>
            -4.6438080072402954e-01 3.6745873093605042e-01</leafValues></_>
        <_>
          <internalNodes>
            0 -1 92 -879667393 939655549 -782233503 -636825344
            -1732169535 -838451066 -1584656268 -1639826980</internalNodes>
          <leafValues>
            -5.0234180688858032e-01 3.7058016657829285e-01</leafValues></_>
        <_>
          <internalNodes>
            0 -1 6 -297081210 601674393 -997719972 -1607301550 67223745
            -1365243645 1780596910 1648619839</internalNodes>
          <leafValues>
            -5.2697747945785522e-01 3.2202002406120300e-01</leafValues></_>
        <_>
          <internalNodes>
            0 -1 103 1334898942 -494550840 -2147447671 -1928764656
            8985847 -1975320400 369557631 -1644444257</internalNodes>
          <leafValues>
            -4.6206092834472656e-01 3.9403602480888367e-01</leafValues></_>
        <_>
          <internalNodes>
            0 -1 19 1388707950 -577538943 1224765458 520634894 51009900
            -493748223 -1035714290 2046952194</internalNodes>
          <leafValues>
            -5.5602705478668213e-01 3.4863707423210144e-01</leafValues></_>
        <_>
          <internalNodes>
            0 -1 121 -284428383 990961688 -251587548 -16391840 537454554
            -167108086 542466559 529264859</internalNodes>
          <leafValues>
            -4.2125481367111206e-01 4.4775643944740295e-01</leafValues></_>
        <_>
          <internalNodes>
            0 -1 43 1313776373 -955248618 268570897 -418339692
            -350445280 -401309372 -1281038040 -1163050025</internalNodes>
          <leafValues>
            -4.8548054695129395e-01 4.0641346573829651e-01</leafValues></_>
        <_>
          <internalNodes>
            0 -1 144 -1153958033 1073414116 -1040194316 -1446248533
            243264495 -1640562714 -1912626699 -2065742657</internalNodes>
          <leafValues>
            -3.6406412720680237e-01 5.3043335676193237e-01</leafValues></_></weakClassifiers></_>
    <!-- stage 5 -->
    <_>
      <maxWeakCount>10</maxWeakCount>
      <stageThreshold>-6.2368780374526978e-01</stageThreshold>
      <weakClassifiers>
        <_>
          <internalNodes>
            0 -1 1 -218593110 -575483904 -1587524521 1906405152
            -1392554774 -276926772 -1049304833 1090520066</internalNodes>
          <leafValues>
            -3.8012760877609253e-01 5.3441935777664185e-01</leafValues></_>
        <_>
          <internalNodes>
            0 -1 41 -4853798 405868192 1853754658 420154915 -16871528
            -1207386180 1556081802 -815268205</internalNodes>
          <leafValues>
            -3.3823919296264648e-01 5.2830511331558228e-01</leafValues></_>
        <_>
          <internalNodes>
            0 -1 64 -72286469 -575472911 -1426180038 2134356659
            237130891 -273482281 780013755 -1415851337</internalNodes>
          <leafValues>
            -3.1539440155029297e-01 5.8851373195648193e-01</leafValues></_>
        <_>
          <internalNodes>
            0 -1 94 986989811 -1604840872 1113610611 -15524959 202440756
            -1709703103 -1037866526 -599372048</internalNodes>
          <leafValues>
            -5.0819063186645508e-01 3.6406466364860535e-01</leafValues></_>
        <_>
          <internalNodes>
            0 -1 131 -138745479 -216397752 -2128932137 -1256551987
            -1874687336 -620101494 686429371 -860221156</internalNodes>
          <leafValues>
            -4.0651062130928040e-01 4.6059733629226685e-01</leafValues></_>
        <_>
          <internalNodes>
            0 -1 132 -771040592 302383122 5141 -44912586 1644443659
            276824193 612362 1545194058</internalNodes>
          <leafValues>
            -5.3298878669738770e-01 3.7206688523292542e-01</leafValues></_>
        <_>
          <internalNodes>
            0 -1 47 -543730963 -581107071 402884180 1368027594
            -930467234 -72777722 -931091778 -300914078</internalNodes>
          <leafValues>
            -4.2439627647399902e-01 4.6485489606857300e-01</leafValues></_>
        <_>
          <internalNodes>
            0 -1 61 -938290509 -561979194 34619729 -1593601581 271110673
            -1459138528 1073758379 2091369171</internalNodes>
          <leafValues>
            -4.2389070987701416e-01 4.9094858765602112e-01</leafValues></_>
        <_>
          <internalNodes>
            0 -1 82 1583609515 -155271377 -1501952349 -109578334
            370066335 -1297008785 658208699 -363858650</internalNodes>
          <leafValues>
            -3.5379639267921448e-01 5.9027504920959473e-01</leafValues></_>
        <_>
          <internalNodes>
            0 -1 136 -1139843365 -2130542519 -1073712769 -1264873192
            2024690351 -1693056888 -2124455755 -1929453296</internalNodes>
          <leafValues>
            -4.6060764789581299e-01 4.6451473236083984e-01</leafValues></_></weakClassifiers></_>
    <!-- stage 6 -->
    <_>
      <maxWeakCount>10</maxWeakCount>
      <stageThreshold>-1.0779763460159302e+00</stageThreshold>
      <weakClassifiers>
        <_>
          <internalNodes>
            0 -1 18 -1024473490 -1432686948 -301404412 1258946279
            -1377117304 -833585156 -2069561798 -784140553</internalNodes>
          <leafValues>
            -3.2945090532302856e-01 5.5394881963729858e-01</leafValues></_>
        <_>
          <internalNodes>
            0 -1 112 -70255881 571355842 1162145802 1074429968
            1183410420 -628457408 1241661540 -938751904</internalNodes>
          <leafValues>
            -4.9210762977600098e-01 3.8366493582725525e-01</leafValues></_>
        <_>
          <internalNodes>
            0 -1 141 -135267421 187543214 -8945931 -1065089 -1887445333
            -2000046220 1374119104 -992225537</internalNodes>
          <leafValues>
            -3.5823288559913635e-01 4.7824245691299438e-01</leafValues></_>
        <_>
          <internalNodes>
            0 -1 73 -1382285323 -1785671216 269834523 738860322
            579105636 -1694433263 143481064 -1475661518</internalNodes>
          <leafValues>
            -5.3046327829360962e-01 3.2441425323486328e-01</leafValues></_>
        <_>
          <internalNodes>
            0 -1 21 -872032626 -447919655 545439755 1195843607
            -191824242 -1576357746 671279307 1896007745</internalNodes>
          <leafValues>
            -4.9940052628517151e-01 3.4238573908805847e-01</leafValues></_>
        <_>
          <internalNodes>
            0 -1 139 2051264664 838877184 1078521888 -788248554
            1354760346 -8322942 -520024055 1278564379</internalNodes>
          <leafValues>
            -4.4588100910186768e-01 4.0482404828071594e-01</leafValues></_>
        <_>
          <internalNodes>
            0 -1 52 -427866669 -1396489022 436289617 -2113758695
            1074356753 -1639702527 -1609987999 -96548720</internalNodes>
          <leafValues>
            -4.8485639691352844e-01 3.6727517843246460e-01</leafValues></_>
        <_>
          <internalNodes>
            0 -1 26 -205006625 -870367217 1360003089 1345507979
            -800816054 168329217 -699221798 -216871234</internalNodes>
          <leafValues>
            -3.9372047781944275e-01 4.7823545336723328e-01</leafValues></_>
        <_>
          <internalNodes>
            0 -1 50 -833210800 -1635056319 286392337 -1961226159
            -1844803336 -1413250942 1242170504 -938817507</internalNodes>
          <leafValues>
            -5.4730582237243652e-01 3.7237480282783508e-01</leafValues></_>
        <_>
          <internalNodes>
            0 -1 39 -1291077129 -1023016624 541196376 -1042460663
            -342164872 545593379 438340155 -880170765</internalNodes>
          <leafValues>
            -4.3585911393165588e-01 4.7447595000267029e-01</leafValues></_></weakClassifiers></_>
    <!-- stage 7 -->
    <_>
      <maxWeakCount>11</maxWeakCount>
      <stageThreshold>-8.2279396057128906e-01</stageThreshold>
      <weakClassifiers>
        <_>
          <internalNodes>
            0 -1 78 -577702923 -9404682 -1358962691 -114689 -1075838983
            -17367556 -1073816067 998769816</internalNodes>
          <leafValues>
            -3.0912160873413086e-01 5.3193831443786621e-01</leafValues></_>
        <_>
          <internalNodes>
            0 -1 105 -513812129 -2113754028 319587281 1859145094
            2018191827 -394035030 -444017179 -154738528</internalNodes>
          <leafValues>
            -4.1607072949409485e-01 4.2432877421379089e-01</leafValues></_>
        <_>
          <internalNodes>
            0 -1 147 -1822425137 -1975217724 1409413216 -1666236017
            -1861506909 67735914 1888977120 -973635365</internalNodes>
          <leafValues>
            -4.3299865722656250e-01 3.8204813003540039e-01</leafValues></_>
        <_>
          <internalNodes>
            0 -1 66 -1350086313 -838445031 303094013 -331840430
            -120432604 -308231936 -418956571 -601322544</internalNodes>
          <leafValues>
            -5.0185978412628174e-01 3.4390509128570557e-01</leafValues></_>
        <_>
          <internalNodes>
            0 -1 89 763084287 531292030 1073528829 -1217036426
            -1107296776 -1610612745 267788191 -1934327881</internalNodes>
          <leafValues>
            -3.5732465982437134e-01 4.7682449221611023e-01</leafValues></_>
        <_>
          <internalNodes>
            0 -1 13 1586450062 -557514686 268455958 1381126914
            1075855426 1396910336 -628714101 1896082267</internalNodes>
          <leafValues>
            -5.0827926397323608e-01 3.5893157124519348e-01</leafValues></_>
        <_>
          <internalNodes>
            0 -1 48 1006977074 -541834684 353688021 1967194148
            -1870475037 1753909264 537555643 1107313220</internalNodes>
          <leafValues>
            -5.2878659963607788e-01 3.4873741865158081e-01</leafValues></_>
        <_>
          <internalNodes>
            0 -1 123 540683890 173058417 287044831 -670121776 714821235
            -897580880 841691294 -2147081712</internalNodes>
          <leafValues>
            -6.3047105073928833e-01 2.8120705485343933e-01</leafValues></_>
        <_>
          <internalNodes>
            0 -1 140 -1935671369 193786240 469848445 -598965240
            -1157584463 -31416192 1209107124 -372844348</internalNodes>
          <leafValues>
            -4.5283558964729309e-01 4.4524103403091431e-01</leafValues></_>
        <_>
          <internalNodes>
            0 -1 68 1468957583 -100429428 17453081 -1147478005
            -637090828 -97353728 -1341587191 -248790893</internalNodes>
          <leafValues>
            -3.8714998960494995e-01 5.0002062320709229e-01</leafValues></_>
        <_>
          <internalNodes>
            0 -1 57 -1404580741 747032908 1108164991 -864135456
            -2013061116 -1434386238 1259586500 -645203064</internalNodes>
          <leafValues>
            -5.0607544183731079e-01 4.0598055720329285e-01</leafValues></_></weakClassifiers></_>
    <!-- stage 8 -->
    <_>
      <maxWeakCount>10</maxWeakCount>
      <stageThreshold>-7.7969801425933838e-01</stageThreshold>
      <weakClassifiers>
        <_>
          <internalNodes>
            0 -1 109 169351728 428135306 -2147378659 -36642816
            -1685427944 -1629052798 747126168 -1940891388</internalNodes>
          <leafValues>
            -6.2477231025695801e-01 3.8474091887474060e-01</leafValues></_>
        <_>
          <internalNodes>
            0 -1 62 -627485323 -98575 -1099186177 -101029130 1589632508
            -561160 -1094954243 -97500992</internalNodes>
          <leafValues>
            -3.6355498433113098e-01 4.3311485648155212e-01</leafValues></_>
        <_>
          <internalNodes>
            0 -1 67 -592060677 -558710801 251527738 -1817793994
            1316753051 -843104845 41887987 -370781509</internalNodes>
          <leafValues>
            -3.1094840168952942e-01 5.0754231214523315e-01</leafValues></_>
        <_>
          <internalNodes>
            0 -1 114 -210249735 -1632799543 -5 -51446029 -134325999
            -1124150030 519894518 -79497040</internalNodes>
          <leafValues>
            -3.7154278159141541e-01 4.1936799883842468e-01</leafValues></_>
        <_>
          <internalNodes>
            0 -1 120 -128357613 -1423912494 -1458417663 -2143124531
            -1442019712 -1736284653 -2113822076 -1060060368</internalNodes>
          <leafValues>
            -5.0943565368652344e-01 3.1731468439102173e-01</leafValues></_>
        <_>
          <internalNodes>
            0 -1 5 -397662324 -912906902 -2080354304 -245907452
            -903864070 -1341994703 1208133111 -986543693</internalNodes>
          <leafValues>
            -5.0248509645462036e-01 3.5524600744247437e-01</leafValues></_>
        <_>
          <internalNodes>
            0 -1 76 -502114343 -1689243647 -805222313 -1806538493
            1356337340 -1442643965 -2146942906 -1148552508</internalNodes>
          <leafValues>
            -5.6585967540740967e-01 2.7778360247612000e-01</leafValues></_>
        <_>
          <internalNodes>
            0 -1 146 -1892238454 146981152 -788336496 -1947430741
            63016655 -1712422709 283185284 167582021</internalNodes>
          <leafValues>
            -6.5365070104598999e-01 2.3282086849212646e-01</leafValues></_>
        <_>
          <internalNodes>
            0 -1 106 790507989 -1730788920 -2058528545 -1425622952
            2030780493 990053770 42027555 -1633788864</internalNodes>
          <leafValues>
            -6.3468533754348755e-01 2.5690242648124695e-01</leafValues></_>
        <_>
          <internalNodes>
            0 -1 96 1158866422 -921284602 8447094 -304578432 1073903795
            427950593 58995487 -831585462</internalNodes>
          <leafValues>
            -5.0024962425231934e-01 3.5090023279190063e-01</leafValues></_></weakClassifiers></_>
    <!-- stage 9 -->
    <_>
      <maxWeakCount>10</maxWeakCount>
      <stageThreshold>-6.2514293193817139e-01</stageThreshold>
      <weakClassifiers>
        <_>
          <internalNodes>
            0 -1 31 -33960834 808680371 -1896928208 -1381979133
            -541204806 -1472497849 -368099812 -926417329</internalNodes>
          <leafValues>
            -2.2179585695266724e-01 5.2386564016342163e-01</leafValues></_>
        <_>
          <internalNodes>
            0 -1 17 -504435008 -245001147 -1408759805 -1928988053
            2033740295 -787931103 1745400523 1898043409</internalNodes>
          <leafValues>
            -5.0476163625717163e-01 3.1379210948944092e-01</leafValues></_>
        <_>
          <internalNodes>
            0 -1 88 970398707 797530144 -2071376547 755004050 1050104308
            -121601888 152592391 -1908275176</internalNodes>
          <leafValues>
            -5.3898334503173828e-01 2.6897424459457397e-01</leafValues></_>
        <_>
          <internalNodes>
            0 -1 150 -165678105 -871841630 -803487296 -2075258480
            1677886487 -1865775720 -2103373632 -791684625</internalNodes>
          <leafValues>
            -4.0085202455520630e-01 4.0305775403976440e-01</leafValues></_>
        <_>
          <internalNodes>
            0 -1 95 236328785 2002682709 -48131961 1036650826 -125816172
            -929365751 -23959408 -1703275056</internalNodes>
          <leafValues>
            -5.2189087867736816e-01 2.8786823153495789e-01</leafValues></_>
        <_>
          <internalNodes>
            0 -1 110 -186759952 1068601883 268452018 -1042419430
            -503266594 1484914715 -488100949 236347927</internalNodes>
          <leafValues>
            -5.3768080472946167e-01 2.7408474683761597e-01</leafValues></_>
        <_>
          <internalNodes>
            0 -1 3 -1027423254 709837384 1896075677 -1019185147 8438001
            -1977219071 1379328265 1639576099</internalNodes>
          <leafValues>
            -4.1683822870254517e-01 3.8259133696556091e-01</leafValues></_>
        <_>
          <internalNodes>
            0 -1 100 -2079948837 1007112393 -1859022447 605069452
            -1732432356 -98402175 152109281 -766451612</internalNodes>
          <leafValues>
            -5.2888709306716919e-01 2.9676741361618042e-01</leafValues></_>
        <_>
          <internalNodes>
            0 -1 23 -421013246 1115967874 -1877995440 -1843859086
            -1073524472 -1774120960 -1316570299 -517806322</internalNodes>
          <leafValues>
            -5.2621114253997803e-01 3.1860426068305969e-01</leafValues></_>
        <_>
          <internalNodes>
            0 -1 42 2112210783 -1197408641 -285262790 94611187 -13673410
            -787947554 -331351910 -1396408774</internalNodes>
          <leafValues>
            -4.0629544854164124e-01 4.3857875466346741e-01</leafValues></_></weakClassifiers></_>
    <!-- stage 10 -->
    <_>
      <maxWeakCount>14</maxWeakCount>
      <stageThreshold>-8.4408986568450928e-01</stageThreshold>
      <weakClassifiers>
        <_>
          <internalNodes>
            0 -1 11 -151261458 1086291943 -486607230 1893924778
            -285278442 1885831021 -185141249 1936883615</internalNodes>
          <leafValues>
            -3.3398437500000000e-01 4.7672066092491150e-01</leafValues></_>
        <_>
          <internalNodes>
            0 -1 152 -412096593 766148567 -403181920 1844445050
            1877517719 103612407 226452816 1439688639</internalNodes>
          <leafValues>
            -3.0551680922508240e-01 4.6368911862373352e-01</leafValues></_>
        <_>
          <internalNodes>
            0 -1 126 -839385097 -1883571082 -273678490 -873042766
            2128231828 -1091616779 -26340904 -844116562</internalNodes>
          <leafValues>
            -3.0164408683776855e-01 4.7421735525131226e-01</leafValues></_>
        <_>
          <internalNodes>
            0 -1 129 -158469263 -1232985543 -1610447483 -2082318198
            36009129 788922497 838877211 2108422265</internalNodes>
          <leafValues>
            -3.8947030901908875e-01 3.6998000741004944e-01</leafValues></_>
        <_>
          <internalNodes>
            0 -1 142 -2121805608 -1825714168 18202881 -716337124
            -1278697280 -1341521720 1779167665 -1739554688</internalNodes>
          <leafValues>
            -4.7080844640731812e-01 2.9006892442703247e-01</leafValues></_>
        <_>
          <internalNodes>
            0 -1 72 -515655813 -1202699493 -2130706376 1209702040
            277835781 -1467377344 43584844 1350118102</internalNodes>
          <leafValues>
            -5.3705126047134399e-01 2.7864506840705872e-01</leafValues></_>
        <_>
          <internalNodes>
            0 -1 97 1390360279 -1030569829 -1740629953 741449795
            -245726255 -1340962653 722182400 -348216376</internalNodes>
          <leafValues>
            -3.9853188395500183e-01 3.7743720412254333e-01</leafValues></_>
        <_>
          <internalNodes>
            0 -1 24 1246539798 1331179627 605454852 -1588393201
            1074194573 13781585 -1610294904 1130608673</internalNodes>
          <leafValues>
            -5.0780022144317627e-01 3.2081645727157593e-01</leafValues></_>
        <_>
          <internalNodes>
            0 -1 116 -1348122113 -531464175 -788430635 437285067
            -148302596 -720846829 -670881686 -1901045456</internalNodes>
          <leafValues>
            -4.4454416632652283e-01 3.4748592972755432e-01</leafValues></_>
        <_>
          <internalNodes>
            0 -1 8 -971586745 -593324428 -51876000 1562400418 130433431
            -822315018 1470887710 -782804478</internalNodes>
          <leafValues>
            -3.8379424810409546e-01 4.3454319238662720e-01</leafValues></_>
        <_>
          <internalNodes>
            0 -1 65 1711372023 -634249867 -1090617486 -408821900
            1596735485 -1887703041 1550199842 -547908653</internalNodes>
          <leafValues>
            -3.7893876433372498e-01 4.2994078993797302e-01</leafValues></_>
        <_>
          <internalNodes>
            0 -1 37 -820561133 1366343601 -1912982383 -797069775
            1160247229 678950483 -992014134 -1595946788</internalNodes>
          <leafValues>
            -2.9577228426933289e-01 5.2709394693374634e-01</leafValues></_>
        <_>
          <internalNodes>
            0 -1 30 -792210230 -163622867 1107379117 1041392006
            -268238318 2114136116 -2004166422 1929562898</internalNodes>
          <leafValues>
            -4.5105376839637756e-01 3.7779715657234192e-01</leafValues></_>
        <_>
          <internalNodes>
            0 -1 35 -8925554 1031200275 -1359081870 679310901 804336925
            531831314 -1879073000 -80351301</internalNodes>
          <leafValues>
            -3.8881042599678040e-01 4.3070852756500244e-01</leafValues></_></weakClassifiers></_>
    <!-- stage 11 -->
    <_>
      <maxWeakCount>14</maxWeakCount>
      <stageThreshold>-1.2091981172561646e+00</stageThreshold>
      <weakClassifiers>
        <_>
          <internalNodes>
            0 -1 25 -991467290 -889536538 -19480602 1916337762
            1322603982 -655039020 -168405696 -1258226862</internalNodes>
          <leafValues>
            -3.5675081610679626e-01 4.4279560446739197e-01</leafValues></_>
        <_>
          <internalNodes>
            0 -1 125 136385659 -1562846829 -594456099 -270741098
            1303137005 -910671704 1082725493 -935313104</internalNodes>
          <leafValues>
            -5.0604939460754395e-01 2.9726320505142212e-01</leafValues></_>
        <_>
          <internalNodes>
            0 -1 153 -80742489 582920428 1014747686 -1020858522
            -404248669 72787958 1148503489 1173356235</internalNodes>
          <leafValues>
            -3.5649418830871582e-01 4.0335842967033386e-01</leafValues></_>
        <_>
          <internalNodes>
            0 -1 15 -202320052 -1502426 1127281942 -585764808
            -1852103829 -938344181 -1073016166 566567686</internalNodes>
          <leafValues>
            -4.6342003345489502e-01 3.2650455832481384e-01</leafValues></_>
        <_>
          <internalNodes>
            0 -1 111 -68420753 45752348 -1765763871 1724307604
            1870762304 -863231813 948425664 -1604290816</internalNodes>
          <leafValues>
            -5.4003316164016724e-01 2.6513931155204773e-01</leafValues></_>
        <_>
          <internalNodes>
            0 -1 87 -1086849545 2143198910 -1090617604 -1611141397
            -1359185963 1052702583 665071531 -840607749</internalNodes>
          <leafValues>
            -3.8238203525543213e-01 4.5888039469718933e-01</leafValues></_>
        <_>
          <internalNodes>
            0 -1 81 1529527164 -1027300258 289444728 1823717482
            686127463 578932772 -502775542 -1930992890</internalNodes>
          <leafValues>
            -4.8850113153457642e-01 3.3680257201194763e-01</leafValues></_>
        <_>
          <internalNodes>
            0 -1 130 122894847 -1496227113 554825567 -301059809 46803903
            -704174016 830686197 -343222888</internalNodes>
          <leafValues>
            -4.4222456216812134e-01 3.8157141208648682e-01</leafValues></_>
        <_>
          <internalNodes>
            0 -1 151 -171966673 -240124007 -151078000 380481372
            -1082689553 259932151 -721947771 -706230373</internalNodes>
          <leafValues>
            -3.2726356387138367e-01 5.1937687397003174e-01</leafValues></_>
        <_>
          <internalNodes>
            0 -1 63 374887781 1414420949 -644855665 1561874841
            -1794387751 -629038463 1921768384 1224872128</internalNodes>
          <leafValues>
            -4.7891685366630554e-01 3.5778212547302246e-01</leafValues></_>
        <_>
          <internalNodes>
            0 -1 74 -1716080193 -1762260841 17011165 2027466841
            1900544051 -1565996417 1797212677 -616899908</internalNodes>
          <leafValues>
            -4.2052900791168213e-01 3.9923393726348877e-01</leafValues></_>
        <_>
          <internalNodes>
            0 -1 22 -2142269951 -1057712869 -2080308061 -315273211
            -2130699613 -939380476 -515847016 1256808344</internalNodes>
          <leafValues>
            -4.4917824864387512e-01 4.1900154948234558e-01</leafValues></_>
        <_>
          <internalNodes>
            0 -1 55 -1553656449 1469176662 380766393 -973901489
            -229850156 -1710091855 -1886533004 -44842269</internalNodes>
          <leafValues>
            -4.0062150359153748e-01 4.4751492142677307e-01</leafValues></_>
        <_>
          <internalNodes>
            0 -1 122 -1294241155 -1979555575 51743765 -1416425133
            -1407374767 -1080782717 2010272436 -861878160</internalNodes>
          <leafValues>
            -5.2165955305099487e-01 3.2777240872383118e-01</leafValues></_></weakClassifiers></_>
    <!-- stage 12 -->
    <_>
      <maxWeakCount>14</maxWeakCount>
      <stageThreshold>-7.2829049825668335e-01</stageThreshold>
      <weakClassifiers>
        <_>
          <internalNodes>
            0 -1 14 -58833204 1542280943 -285278486 807460450 -1041088
            930575943 -323031298 1929641062</internalNodes>
          <leafValues>
            -2.7626457810401917e-01 4.4827586412429810e-01</leafValues></_>
        <_>
          <internalNodes>
            0 -1 27 -294129665 809348887 784248322 -48022990 -1668412451
            -1191645342 -1130375479 -476840017</internalNodes>
          <leafValues>
            -2.8669813275337219e-01 4.2767125368118286e-01</leafValues></_>
        <_>
          <internalNodes>
            0 -1 53 -854370823 -367373985 1393541279 -627166502
            1535648294 -223674213 -1712264240 -233680792</internalNodes>
          <leafValues>
            -4.1584718227386475e-01 3.0896416306495667e-01</leafValues></_>
        <_>
          <internalNodes>
            0 -1 149 -610279523 573192558 -1564478785 -37880397
            -1833718094 1039064508 -1841437548 -610278203</internalNodes>
          <leafValues>
            -2.8775238990783691e-01 4.4757536053657532e-01</leafValues></_>
        <_>
          <internalNodes>
            0 -1 133 739177183 -938823472 -2126483448 400556283
            843544217 -612351488 -1375187575 -392735830</internalNodes>
          <leafValues>
            -4.0130972862243652e-01 3.3640065789222717e-01</leafValues></_>
        <_>
          <internalNodes>
            0 -1 34 -617418851 -1401188412 -97661863 -79954389
            -703436998 -413774223 -634128997 -250381422</internalNodes>
          <leafValues>
            -3.0810528993606567e-01 4.4388362765312195e-01</leafValues></_>
        <_>
          <internalNodes>
            0 -1 99 -143657039 1987225347 1031498293 -43913673
            -148248823 -1355841738 1987540895 -1404567699</internalNodes>
          <leafValues>
            -2.9409754276275635e-01 4.8485484719276428e-01</leafValues></_>
        <_>
          <internalNodes>
            0 -1 145 -1302688888 134748868 1091854368 -1912172256
            -1575284029 170102912 353640832 1154740451</internalNodes>
          <leafValues>
            -5.6157404184341431e-01 2.9543253779411316e-01</leafValues></_>
        <_>
          <internalNodes>
            0 -1 51 1520877043 992673591 -65669 255523061 -53467697
            -1082720393 -816678949 -1208762113</internalNodes>
          <leafValues>
            -3.2761791348457336e-01 5.2271997928619385e-01</leafValues></_>
        <_>
          <internalNodes>
            0 -1 83 -514866825 1180860560 19471283 143265842 1229620293
            194578561 -2145742800 89324456</internalNodes>
          <leafValues>
            -4.9290549755096436e-01 3.0645370483398438e-01</leafValues></_>
        <_>
          <internalNodes>
            0 -1 9 -416289809 1820850144 2122301344 -249499982
            1115581915 -612573324 1735785941 -229378398</internalNodes>
          <leafValues>
            -3.1760099530220032e-01 4.8646211624145508e-01</leafValues></_>
        <_>
          <internalNodes>
            0 -1 59 738195439 -572395586 1048333400 -1577230883
            -353192235 -1088202763 -1103651169 -809715848</internalNodes>
          <leafValues>
            -3.2769361138343811e-01 4.6464055776596069e-01</leafValues></_>
        <_>
          <internalNodes>
            0 -1 4 -244162044 -979697657 135528961 -1088304625 950807073
            -1860009912 1745527458 1344426097</internalNodes>
          <leafValues>
            -5.6418055295944214e-01 2.9356580972671509e-01</leafValues></_>
        <_>
          <internalNodes>
            0 -1 29 -623082845 1666458385 -1052359619 159482258
            -1791307350 -399998976 -1792726708 -775784429</internalNodes>
          <leafValues>
            -4.2444035410881042e-01 3.7486153841018677e-01</leafValues></_></weakClassifiers></_>
    <!-- stage 13 -->
    <_>
      <maxWeakCount>14</maxWeakCount>
      <stageThreshold>-1.2580658197402954e+00</stageThreshold>
      <weakClassifiers>
        <_>
          <internalNodes>
            0 -1 75 403704308 -711978925 1091002591 85086814 1479666676
            -33005432 -1458466419 260576288</internalNodes>
          <leafValues>
            -4.5454546809196472e-01 3.9661899209022522e-01</leafValues></_>
        <_>
          <internalNodes>
            0 -1 93 1848600241 -1213616496 -268751097 -1514492488
            1845874099 2118287126 1463097343 -56648217</internalNodes>
          <leafValues>
            -3.4862691164016724e-01 3.8274398446083069e-01</leafValues></_>
        <_>
          <internalNodes>
            0 -1 134 1913322356 -1399667030 822101507 -62769886
            990331945 861085835 562375024 1899848302</internalNodes>
          <leafValues>
            -5.2401506900787354e-01 2.4332103133201599e-01</leafValues></_>
        <_>
          <internalNodes>
            0 -1 7 -3174729 -109076679 -1439814651 -801683193
            -1889021250 -1308672163 -1087382117 -268591111</internalNodes>
          <leafValues>
            -2.4475862085819244e-01 5.4319453239440918e-01</leafValues></_>
        <_>
          <internalNodes>
            0 -1 137 310574899 -1300621948 51974081 -1114171124
            -1173837333 -1098348542 143212745 1208568840</internalNodes>
          <leafValues>
            -4.3223458528518677e-01 3.0782917141914368e-01</leafValues></_>
        <_>
          <internalNodes>
            0 -1 33 -18951583 498290257 -1343052799 -1950732297
            -1983986504 1962852286 1863773693 -307083399</internalNodes>
          <leafValues>
            -3.3349952101707458e-01 3.9747279882431030e-01</leafValues></_>
        <_>
          <internalNodes>
            0 -1 128 -1000931683 -960577386 -2067578804 490733568
            1074815416 31719568 -1576975028 -1920122661</internalNodes>
          <leafValues>
            -4.1598311066627502e-01 3.5050877928733826e-01</leafValues></_>
        <_>
          <internalNodes>
            0 -1 12 1448464590 2027237647 -1878786046 302662086
            -889174008 1895890944 1216977866 792837043</internalNodes>
          <leafValues>
            -4.4256150722503662e-01 3.1433153152465820e-01</leafValues></_>
        <_>
          <internalNodes>
            0 -1 85 577546000 1442849872 335609941 -1382336594
            -100048659 1543700675 684288193 757715369</internalNodes>
          <leafValues>
            -5.2161580324172974e-01 2.9540386795997620e-01</leafValues></_>
        <_>
          <internalNodes>
            0 -1 54 -620587239 2066364094 5972833 1901886946 -617959762
            168721788 892593818 1197183690</internalNodes>
          <leafValues>
            -3.7471982836723328e-01 4.2704626917839050e-01</leafValues></_>
        <_>
          <internalNodes>
            0 -1 58 -261089784 857482330 1108628763 234930630
            -1102977876 364947543 1451950762 18895360</internalNodes>
          <leafValues>
            -5.4216271638870239e-01 2.7518963813781738e-01</leafValues></_>
        <_>
          <internalNodes>
            0 -1 118 714630033 -1344904806 -2096983657 -138096512
            -2122317155 -2004844391 724324513 -1730130652</internalNodes>
          <leafValues>
            -6.0258364677429199e-01 2.5254258513450623e-01</leafValues></_>
        <_>
          <internalNodes>
            0 -1 0 941881798 -792719226 134745201 -1925976762
            -1836916273 -1937207295 1208781326 549816385</internalNodes>
          <leafValues>
            -4.5905259251594543e-01 3.4498214721679688e-01</leafValues></_>
        <_>
          <internalNodes>
            0 -1 127 2132234530 -704625662 -2147266292 -276524154
            2080828183 1636959368 1751498762 -1048974374</internalNodes>
          <leafValues>
            -4.3777474761009216e-01 3.4287503361701965e-01</leafValues></_></weakClassifiers></_>
    <!-- stage 14 -->
    <_>
      <maxWeakCount>8</maxWeakCount>
      <stageThreshold>-2.7677047252655029e-01</stageThreshold>
      <weakClassifiers>
        <_>
          <internalNodes>
            0 -1 107 179969336 658399103 1073414142 251019262 527768932
            1073741687 503199509 217324853</internalNodes>
          <leafValues>
            -5.0495052337646484e-01 7.7677679061889648e-01</leafValues></_>
        <_>
          <internalNodes>
            0 -1 40 2138186835 984747250 1073423395 49952259 -1354809983
            259194872 -1074099704 -845291889</internalNodes>
          <leafValues>
            -2.1064530313014984e-01 6.7980819940567017e-01</leafValues></_>
        <_>
          <internalNodes>
            0 -1 28 -1997191335 -1310514105 -68653201 1355963940
            821897056 -160008753 670543166 -1173669437</internalNodes>
          <leafValues>
            -3.1327545642852783e-01 6.6323995590209961e-01</leafValues></_>
        <_>
          <internalNodes>
            0 -1 45 -541944741 -1171018704 518926099 -1594155152
            1599452969 1853295483 -268548050 790853375</internalNodes>
          <leafValues>
            -3.7368029356002808e-01 6.0393857955932617e-01</leafValues></_>
        <_>
          <internalNodes>
            0 -1 148 -1096575554 -2044662033 -1417920796 -1140529920
            -2029523512 -2054228364 -1791535695 -614821760</internalNodes>
          <leafValues>
            -4.5853507518768311e-01 5.3642421960830688e-01</leafValues></_>
        <_>
          <internalNodes>
            0 -1 138 134306449 -1259704784 -50600031 1931721922
            -1384776993 -1046184779 1143838161 191324253</internalNodes>
          <leafValues>
            -4.0411922335624695e-01 6.2432968616485596e-01</leafValues></_>
        <_>
          <internalNodes>
            0 -1 10 -475544950 -340990240 1081060864 341893683 258414346
            8181725 -805366130 1398255203</internalNodes>
          <leafValues>
            -4.0606868267059326e-01 6.5823686122894287e-01</leafValues></_>
        <_>
          <internalNodes>
            0 -1 44 1356955932 -1018068672 4234 -2126249966 684007704
            1753744003 -1879045630 -666058582</internalNodes>
          <leafValues>
            -5.2711081504821777e-01 5.0909125804901123e-01</leafValues></_></weakClassifiers></_></stages>
  <features>
    <_>
      <rect>
        0 0 11 8</rect></_>
    <_>
      <rect>
        0 0 16 9</rect></_>
    <_>
      <rect>
        0 2 16 10</rect></_>
    <_>
      <rect>
        0 6 5 10</rect></_>
    <_>
      <rect>
        0 7 16 10</rect></_>
    <_>
      <rect>
        0 11 16 10</rect></_>
    <_>
      <rect>
        0 13 6 6</rect></_>
    <_>
      <rect>
        0 15 14 5</rect></_>
    <_>
      <rect>
        0 18 2 4</rect></_>
    <_>
      <rect>
        0 20 3 4</rect></_>
    <_>
      <rect>
        0 21 2 3</rect></_>
    <_>
      <rect>
        0 30 4 2</rect></_>
    <_>
      <rect>
        0 31 3 3</rect></_>
    <_>
      <rect>
        0 32 4 3</rect></_>
    <_>
      <rect>
        0 34 5 3</rect></_>
    <_>
      <rect>
        1 0 16 16</rect></_>
    <_>
      <rect>
        1 4 16 14</rect></_>
    <_>
      <rect>
        1 8 16 9</rect></_>
    <_>
      <rect>
        1 13 12 10</rect></_>
    <_>
      <rect>
        1 30 7 6</rect></_>
    <_>
      <rect>
        2 1 16 10</rect></_>
    <_>
      <rect>
        2 3 15 11</rect></_>
    <_>
      <rect>
        2 12 14 6</rect></_>
    <_>
      <rect>
        2 27 3 2</rect></_>
    <_>
      <rect>
        3 9 13 9</rect></_>
    <_>
      <rect>
        3 28 4 3</rect></_>
    <_>
      <rect>
        3 33 3 2</rect></_>
    <_>
      <rect>
        4 15 11 4</rect></_>
    <_>
      <rect>
        4 36 6 3</rect></_>
    <_>
      <rect>
        5 18 8 7</rect></_>
    <_>
      <rect>
        5 35 2 2</rect></_>
    <_>
      <rect>
        6 9 10 6</rect></_>
    <_>
      <rect>
        6 15 8 5</rect></_>
    <_>
      <rect>
        6 18 4 6</rect></_>
    <_>
      <rect>
        7 11 14 10</rect></_>
    <_>
      <rect>
        7 12 7 7</rect></_>
    <_>
      <rect>
        7 12 14 10</rect></_>
    <_>
      <rect>
        7 14 11 5</rect></_>
    <_>
      <rect>
        7 15 9 7</rect></_>
    <_>
      <rect>
        7 16 11 6</rect></_>
    <_>
      <rect>
        8 12 5 7</rect></_>
    <_>
      <rect>
        8 12 7 6</rect></_>
    <_>
      <rect>
        8 13 8 4</rect></_>
    <_>
      <rect>
        8 16 10 9</rect></_>
    <_>
      <rect>
        8 16 11 7</rect></_>
    <_>
      <rect>
        8 17 7 5</rect></_>
    <_>
      <rect>
        8 31 2 1</rect></_>
    <_>
      <rect>
        8 36 2 2</rect></_>
    <_>
      <rect>
        9 0 13 7</rect></_>
    <_>
      <rect>
        9 15 7 6</rect></_>
    <_>
      <rect>
        9 18 4 5</rect></_>
    <_>
      <rect>
        9 22 6 4</rect></_>
    <_>
      <rect>
        9 31 2 1</rect></_>
    <_>
      <rect>
        9 33 2 1</rect></_>
    <_>
      <rect>
        10 3 1 1</rect></_>
    <_>
      <rect>
        10 14 10 8</rect></_>
    <_>
      <rect>
        10 16 8 3</rect></_>
    <_>
      <rect>
        10 29 2 1</rect></_>
    <_>
      <rect>
        11 0 13 4</rect></_>
    <_>
      <rect>
        11 13 9 8</rect></_>
    <_>
      <rect>
        11 14 8 6</rect></_>
    <_>
      <rect>
        11 16 11 7</rect></_>
    <_>
      <rect>
        11 35 5 3</rect></_>
    <_>
      <rect>
        11 39 5 3</rect></_>
    <_>
      <rect>
        12 12 9 6</rect></_>
    <_>
      <rect>
        12 13 7 10</rect></_>
    <_>
      <rect>
        13 31 2 1</rect></_>
    <_>
      <rect>
        14 10 9 7</rect></_>
    <_>
      <rect>
        14 13 11 9</rect></_>
    <_>
      <rect>
        14 14 6 6</rect></_>
    <_>
      <rect>
        14 16 8 8</rect></_>
    <_>
      <rect>
        14 30 2 1</rect></_>
    <_>
      <rect>
        15 15 6 4</rect></_>
    <_>
      <rect>
        15 16 5 4</rect></_>
    <_>
      <rect>
        15 21 2 1</rect></_>
    <_>
      <rect>
        15 36 5 4</rect></_>
    <_>
      <rect>
        16 14 3 9</rect></_>
    <_>
      <rect>
        16 14 9 11</rect></_>
    <_>
      <rect>
        16 32 5 5</rect></_>
    <_>
      <rect>
        16 33 6 5</rect></_>
    <_>
      <rect>
        17 36 2 2</rect></_>
    <_>
      <rect>
        18 8 7 7</rect></_>
    <_>
      <rect>
        18 8 10 8</rect></_>
    <_>
      <rect>
        18 11 3 3</rect></_>
    <_>
      <rect>
        18 12 5 5</rect></_>
    <_>
      <rect>
        18 15 7 7</rect></_>
    <_>
      <rect>
        18 18 2 5</rect></_>
    <_>
      <rect>
        18 18 6 4</rect></_>
    <_>
      <rect>
        18 21 3 2</rect></_>
    <_>
      <rect>
        18 21 5 3</rect></_>
    <_>
      <rect>
        19 12 8 7</rect></_>
    <_>
      <rect>
        19 13 2 2</rect></_>
    <_>
      <rect>
        19 15 3 3</rect></_>
    <_>
      <rect>
        19 18 9 6</rect></_>
    <_>
      <rect>
        19 25 2 1</rect></_>
    <_>
      <rect>
        19 26 2 2</rect></_>
    <_>
      <rect>
        20 7 8 8</rect></_>
    <_>
      <rect>
        20 16 1 2</rect></_>
    <_>
      <rect>
        20 18 2 1</rect></_>
    <_>
      <rect>
        20 18 10 5</rect></_>
    <_>
      <rect>
        20 20 2 1</rect></_>
    <_>
      <rect>
        20 31 2 1</rect></_>
    <_>
      <rect>
        20 32 1 1</rect></_>
    <_>
      <rect>
        21 12 6 6</rect></_>
    <_>
      <rect>
        21 14 2 6</rect></_>
    <_>
      <rect>
        21 15 2 2</rect></_>
    <_>
      <rect>
        21 18 2 3</rect></_>
    <_>
      <rect>
        21 21 3 3</rect></_>
    <_>
      <rect>
        21 23 2 2</rect></_>
    <_>
      <rect>
        21 23 3 3</rect></_>
    <_>
      <rect>
        22 0 9 9</rect></_>
    <_>
      <rect>
        22 12 2 2</rect></_>
    <_>
      <rect>
        22 12 4 4</rect></_>
    <_>
      <rect>
        22 13 6 5</rect></_>
    <_>
      <rect>
        22 21 2 1</rect></_>
    <_>
      <rect>
        22 21 2 2</rect></_>
    <_>
      <rect>
        22 22 2 2</rect></_>
    <_>
      <rect>
        22 23 3 1</rect></_>
    <_>
      <rect>
        22 29 2 2</rect></_>
    <_>
      <rect>
        22 35 3 4</rect></_>
    <_>
      <rect>
        23 11 1 2</rect></_>
    <_>
      <rect>
        23 19 8 5</rect></_>
    <_>
      <rect>
        23 23 2 1</rect></_>
    <_>
      <rect>
        23 25 2 1</rect></_>
    <_>
      <rect>
        24 16 3 3</rect></_>
    <_>
      <rect>
        24 20 3 2</rect></_>
    <_>
      <rect>
        25 10 3 5</rect></_>
    <_>
      <rect>
        26 6 8 10</rect></_>
    <_>
      <rect>
        26 15 5 4</rect></_>
    <_>
      <rect>
        26 15 6 6</rect></_>
    <_>
      <rect>
        26 18 2 1</rect></_>
    <_>
      <rect>
        26 28 2 3</rect></_>
    <_>
      <rect>
        27 8 7 10</rect></_>
    <_>
      <rect>
        27 12 4 6</rect></_>
    <_>
      <rect>
        27 13 7 7</rect></_>
    <_>
      <rect>
        27 17 3 2</rect></_>
    <_>
      <rect>
        27 18 2 2</rect></_>
    <_>
      <rect>
        28 39 5 3</rect></_>
    <_>
      <rect>
        30 44 3 1</rect></_>
    <_>
      <rect>
        32 12 6 9</rect></_>
    <_>
      <rect>
        32 34 2 1</rect></_>
    <_>
      <rect>
        32 35 6 2</rect></_>
    <_>
      <rect>
        32 36 1 1</rect></_>
    <_>
      <rect>
        33 34 4 3</rect></_>
    <_>
      <rect>
        34 30 5 4</rect></_>
    <_>
      <rect>
        34 34 5 3</rect></_>
    <_>
      <rect>
        37 31 4 5</rect></_>
    <_>
      <rect>
        38 31 4 2</rect></_>
    <_>
      <rect>
        39 31 1 1</rect></_>
    <_>
      <rect>
        39 35 2 1</rect></_>
    <_>
      <rect>
        40 29 3 2</rect></_>
    <_>
      <rect>
        41 26 3 2</rect></_>
    <_>
      <rect>
        41 27 3 4</rect></_>
    <_>
      <rect>
        44 30 2 2</rect></_></features></cascade>
</opencv_storage>
